/*This file is automatically generated from a Keras model*/

#ifdef HAVE_CONFIG_H
#include "config.h"
#endif

#include "rnn.h"

static const rnn_weight input_dense_weights[1008] = {
   -2560, 0, -768, 127, -2048, -1536, 127, -3328,
   127, 0, -768, -1792, -1280, -768, 127, -256,
   -1536, 0, -1536, -1024, -256, -512, 127, 127,
   -1792, 127, 127, 127, -1280, -5120, 127, 127,
   127, 127, -512, 127, -1536, 127, 127, -512,
   127, 127, 127, 127, -3840, 127, -2560, 127,
   0, 127, 127, 127, 127, 127, -768, 127,
   127, 127, -512, 127, -3328, 127, 127, -512,
   -12032, 127, -4096, -15360, -3840, 127, -4352, 127,
   -768, 127, -5376, 127, -1280, -4864, -3328, 0,
   127, 127, 127, 127, -3328, -10496, -2560, 127,
   127, 127, -12288, -1536, -2560, 127, -768, -4608,
   -3584, 127, 127, -7168, 127, 127, 127, -3328,
   -4864, 127, 127, 127, -768, -16640, -3072, 0,
   127, -1792, -2304, 127, -1024, 127, 127, 127,
   -3072, -3072, 127, -9216, -768, 127, -3840, 127,
   127, 127, -768, 127, -1024, 127, -1536, 127,
   -1792, 127, 127, -5632, -7680, -768, -1792, 127,
   -9984, -17920, -32256, 127, 127, 127, -17152, -5632,
   -8448, 127, -12032, -30208, 127, 127, 127, 127,
   127, -32768, -19456, -30208, -28928, 127, -3072, -25600,
   -4608, -29184, -8448, 127, 127, 127, 127, -2304,
   -27136, 127, 127, -25600, -10240, -1280, 127, -19200,
   127, -13056, -2304, 127, -6912, -13312, 127, -6144,
   -5376, -32256, -29184, -3072, 127, 127, -512, 127,
   -32000, 127, 127, -30720, 127, 127, 127, -15616,
   127, -31744, 127, -13568, -17664, -32000, 127, -22784,
   127, -27392, -26368, -1792, 127, 127, 127, 127,
   -8960, 127, 127, -32000, -12544, 127, -11520, -11008,
   -5888, 127, -7168, -16640, -30208, 127, 127, -32256,
   127, -24832, 127, 127, 127, 127, 127, -14592,
   -29440, 127, 127, -27136, -11776, 127, -512, 127,
   -11264, 127, -18688, -14848, -9984, 127, 127, -24320,
   127, -29952, 127, -14848, 127, 127, 127, -8192,
   -27904, -28160, 127, -30720, -11008, -18944, 127, 127,
   127, 127, 127, 127, -21248, -32256, 127, 127,
   -4096, -17152, 127, -21248, 127, 127, -8704, -30976,
   -31744, -16128, -8960, -2304, 127, 127, 127, 127,
   -768, 127, 127, -512, -3328, -9216, 127, -28672,
   -1536, -26112, -1280, -8448, -3840, 127, -17664, -32512,
   -5888, -10240, -8704, -21760, 127, 127, -256, 127,
   127, 127, 127, -14848, -14080, -26112, 127, -14080,
   -3584, -31488, 127, -16128, -3584, 127, 127, 127,
   127, -32256, -3328, -29184, 127, 127, -9216, 127,
   -2304, 127, 127, 127, -8192, -27904, 127, -26624,
   127, -30464, 127, -32000, -13056, -7168, -2048, -17664,
   -2048, 127, -11520, -23808, 127, 127, -10496, -20992,
   127, 127, 127, 0, -10240, 127, 127, -14848,
   127, -31744, -23808, -14848, 127, -11520, 127, 127,
   -31488, 127, -12032, -5888, 127, 127, 127, -17408,
   -3328, 127, -20992, -11264, 127, 127, -30720, -25856,
   -3840, -32000, 127, -28928, 127, -12288, -18688, 127,
   -16384, -22016, -30208, -4864, 127, -256, -16896, -6912,
   -15872, 127, -22016, -14848, 127, 127, -9728, -19200,
   127, -28416, 127, -28928, 127, -17408, 127, -24064,
   -30976, 127, -1280, 0, 127, 127, -1792, -4608,
   127, 127, -9728, 127, 127, -11520, 127, -12800,
   127, 127, 127, -24576, 127, -31232, -17664, 127,
   -6912, 127, -15872, -7680, 127, -24320, 127, -18432,
   -24832, -256, 127, -31232, 127, 127, 127, -32256,
   127, 127, 127, -30720, 127, -15360, 127, 127,
   127, 127, 127, 127, -2560, 127, 127, -6144,
   -13824, 127, -28928, -3072, 127, -512, -4352, -2304,
   127, 127, 127, -23552, 0, -17920, -8448, 127,
   127, 127, -18944, -1024, 127, -18432, -5632, -12032,
   127, -21248, -15360, -31744, 127, 127, -14592, -11008,
   127, 127, -32256, -32768, -2048, -7424, 127, -6144,
   -31488, -30976, -17920, -23808, -9472, -32256, 127, -32000,
   -9472, 127, -7936, -13056, -31744, 127, -32768, 127,
   -6400, 127, 127, -3072, 127, 127, 127, 127,
   127, -32768, -32768, 127, -6656, 127, 127, -32768,
   127, 127, -9984, 127, -32768, 127, -32512, 127,
   -14080, 127, 127, 127, 127, 127, 127, -23552,
   127, 127, -23808, 127, -5376, -23552, 127, 127,
   -30976, 127, 127, -32256, -32000, 127, -18944, 127,
   -15104, 127, -23296, 127, -2304, 127, 127, 127,
   127, -7424, 127, 127, -5376, -32768, -3328, 127,
   127, 127, -7424, -15616, -24832, -5376, -24320, -3072,
   -29184, 127, 127, 127, -1792, 127, -6144, 127,
   127, -32768, -26112, -6400, 127, -32256, 127, 127,
   -4608, 127, 127, 127, -20224, 127, 127, 127,
   -12800, -6144, 127, -1792, 127, 127, 127, 127,
   -7680, -9728, 127, 127, -1024, -27136, -2816, 127,
   127, 127, 127, -26624, -16896, -9728, -31744, 127,
   127, 127, 127, -27904, 127, 127, 127, -4608,
   127, 127, -4096, -20224, -9984, -31488, -5120, -32768,
   127, 127, -8448, -14848, 127, 127, -26624, 127,
   127, 127, 127, 127, -3072, 127, 127, 127,
   -32256, 127, -20992, 127, -3072, -3840, 127, -11008,
   127, 127, -8192, -4864, -11776, 127, -27392, 127,
   -24064, 127, -12032, 127, 127, 127, -3840, -19200,
   -6656, -9728, -8960, 127, -4096, -4352, -3328, 127,
   -512, 127, -11520, -18688, -5888, 127, -22272, 127,
   -4352, 127, 127, 127, -4608, -7936, -3584, 127,
   127, 127, -7168, -8448, -5120, -12032, 127, 127,
   127, -7680, 127, -19456, 127, 127, -5120, -5376,
   -15104, 127, 127, -2816, 127, 127, -3328, -9984,
   0, -19456, 127, -8448, -7424, -12800, -4096, -2816,
   -3072, -256, -11776, 127, -2560, 127, -4864, 127,
   -10496, -8192, -21248, -4864, -1024, 127, -15360, 127,
   -6144, -11776, 127, 127, -5120, 127, -4864, 127,
   127, -768, -9472, 0, 127, 127, 127, 127,
   -9984, 127, -16384, -5120, 127, 127, -7680, 127,
   127, 127, 127, 127, 127, -32512, 127, -32512,
   127, 127, -22784, -20224, -8192, 127, -32512, 127,
   -20480, 127, -32512, 127, 127, 127, -2048, -14592,
   -23040, -12800, 127, 127, 127, -32256, 127, -27136,
   -17408, 127, -32000, -30464, 127, 127, -32512, 127,
   -14336, -3072, -32256, -26624, 127, 127, 127, -31744,
   -32256, -32000, 127, -31488, -11520, -29184, -32768, 127,
   127, -25856, -31744, 127, -2816, -5888, -31488, 127,
   -31488, 127, 127, 127, -512, -9984, -6912, -24064,
   127, -28672, -12288, 127, 127, 127, 127, -19200,
   -16384, 127, 127, 127, -30464, -2816, 127, 127,
   -32256, -3584, 127, 127, -2560, 127, -15360, 127,
   -768, 127, -6400, -5120, 127, -22016, -8704, 127,
   127, 127, -20736, -25344, -5888, -4096, -6656, 127,
   127, -24832, 127, -7424, -3328, -30976, -3072, -16640,
   -24064, 127, -22784, -32256, -24320, 127, 127, 127,
   127, -23040, 127, 127, -19968, 127, 127, -12032,
   -12032, 127, 127, -3072, 127, 127, 127, 127,
   127, -7680, -256, 127, -1792, 127, -1024, 127,
   -6912, -10240, 127, -1536, -4352, 127, 127, -2304,
   127, -3584, -16128, -6656, -3072, -14592, 127, 127,
   127, -19456, -12032, 127, 127, 127, 127, 127,
   127, 127, 127, 127, 127, -6400, -6400, -4608
};

static const rnn_weight input_dense_bias[24] = {
   127, -1536, 127, 127, 127, -11008, -32512, 127,
   127, 127, 127, 127, 127, 127, -32768, -19456,
   -32256, 127, 127, 127, -7680, 127, -22784, -5120
};

const DenseLayer input_dense = {
   input_dense_bias,
   input_dense_weights,
   42, 24, ACTIVATION_TANH
};

static const rnn_weight vad_gru_weights[1728] = {
   -31744, 127, -31488, -8448, -24320, -1024, 127, -21504,
   127, 127, -30464, 127, -1024, 127, 127, -13056,
   127, -31744, -29184, -12544, 127, 127, 127, -32768,
   0, -12544, 127, -12800, 127, -5376, -16128, -26624,
   127, 127, 127, 127, 127, 127, -2304, -20224,
   -9984, -5888, -32512, 127, 127, -24576, -11776, -4608,
   -9984, 127, -7168, -12288, 127, 127, -13312, 127,
   -256, -30976, 127, -4608, -9216, -13312, -14592, -7680,
   127, -31744, -6656, -12032, 127, 127, 127, 127,
   127, -32512, -32768, 127, 127, 127, -16384, -18176,
   127, -28928, -28416, 127, 127, 127, 127, -10240,
   127, 127, -27904, 127, -2304, 127, -23552, 127,
   -32512, 127, 127, 127, -31232, 127, 127, -9472,
   -32512, 127, 127, 127, 127, -26624, -15872, -17152,
   -3584, 127, 127, -18176, 127, -10496, 127, -12800,
   127, 127, 127, 127, -4608, 127, 127, -13056,
   127, 127, 127, -28928, -19968, 127, -23296, 127,
   127, -11520, -11264, -5632, 127, -4096, 127, 127,
   -21504, -20224, 127, -18944, 127, 127, -6400, 127,
   127, 127, 127, -6656, 127, 127, 127, -16640,
   127, -14848, 127, -15872, -23808, 127, 127, 127,
   -31488, 127, -32000, 127, -23040, 127, 127, 127,
   -27904, -256, 127, -13312, 127, -6656, -6912, 127,
   -1280, 127, 127, 0, 127, -1792, 127, 127,
   -20992, 127, -2304, 127, 127, -3072, -18688, 127,
   127, -16384, 127, -19712, 127, 127, 127, 127,
   127, 127, 127, -11008, 127, 127, -13056, 127,
   127, 127, 127, 127, 127, 127, -11776, -26880,
   127, -29696, 127, -31488, 127, 127, 127, 127,
   -7424, 127, 127, 127, 127, 127, -3840, 127,
   127, -32768, 127, -31744, 127, 127, 127, 127,
   -12800, -18176, -31232, -16384, 127, -19200, 127, 127,
   127, 127, 127, 127, -32512, 127, -16128, -18944,
   127, -18176, 127, 127, -14336, 127, 127, 127,
   127, 127, -29696, -768, -11776, 127, -3328, 127,
   -18944, -10752, 127, -24320, -24576, 127, 127, 127,
   -4864, -31488, 127, 127, 127, 127, 0, 127,
   127, 127, -5120, 127, 127, 127, -15616, 127,
   -12288, -13824, -12544, 127, -2304, 127, -27136, 127,
   127, 127, 127, -32256, -6144, 127, 127, 127,
   127, 127, 127, 127, -23040, 127, 127, 127,
   -13568, 127, -17664, -22528, -8448, 127, 127, -11776,
   -2304, -32000, 127, -32256, -28928, 127, -10496, 127,
   127, -15872, 127, -2560, 127, 127, -8704, -6144,
   -5120, -28672, 127, 127, -12800, -8704, 127, 127,
   -16384, -27136, 127, -12288, 127, 127, -31232, -11520,
   127, -28672, -6656, -1024, 127, 127, 127, 127,
   -11520, -20480, 127, 127, 127, 127, -24064, -30464,
   127, -22784, 127, -27392, 127, 127, 127, 127,
   -13312, -10752, -9728, -5120, -31232, 127, 127, -6656,
   127, 127, 127, -9984, 127, -5888, -5120, -32000,
   127, 127, 127, -15616, -16896, 127, -5120, 127,
   127, 127, 127, 127, 127, 127, 127, -11520,
   -12800, -18176, 127, -7424, -10496, -6912, 127, 127,
   127, 127, -5888, 127, 127, -24064, 127, 127,
   -29184, 127, -6656, -25600, -15872, -32512, -4352, -21760,
   -15360, 127, -10752, -1536, 127, -30720, -6656, -32256,
   -32512, -8960, -29184, -7936, 127, -32256, -25600, -32256,
   -16384, -11776, -7936, 127, 127, -18944, -28416, -24832,
   -20736, -26624, -29184, -4864, -2304, -29696, -17664, 127,
   127, 127, 127, -13056, 127, -24832, 127, -1024,
   -22784, 127, -12800, 127, 127, -17152, 127, 127,
   -6656, 127, -2560, 127, -7168, -1024, -14592, -18432,
   -28416, 0, -19200, -30464, 127, -19200, -12544, -16896,
   -12544, 127, -30976, 127, -13824, 127, 127, 127,
   -6656, -32256, -31488, 127, 127, 127, 127, -32512,
   -2816, 127, 127, -20992, 127, -6400, 127, 127,
   127, -26624, 127, 127, -12288, 127, -3328, -13312,
   127, -12800, 127, -256, -5632, -11008, -15104, -19968,
   -17152, -8192, -6656, 127, -768, 127, 127, 127,
   127, -2304, 127, -1536, -9472, 127, 127, 127,
   -4864, -2560, 127, 127, -15104, 127, 127, 127,
   -30464, 0, -32768, -27392, -6400, -5632, -17664, -5888,
   -28416, -10752, -23808, -30720, 127, -21760, -13824, -30208,
   127, -20224, 127, 127, -19712, -19200, -4352, -18176,
   -29184, 127, 127, 127, -256, -31488, -5120, 127,
   -16640, -31488, -32768, -22272, 127, 127, -29440, -3584,
   127, -1024, 127, -20224, -29440, 127, -7168, 127,
   -21248, 127, 127, 127, -17664, -1280, 127, -12544,
   127, 127, -6144, -25344, -28160, 127, -21248, 127,
   127, 127, 127, 127, -11520, 127, 127, 127,
   -17920, -512, 127, 127, -24832, 127, -2304, -24064,
   127, 127, -12544, -6144, 127, 127, -28160, -17920,
   -29184, -3072, 127, -1024, -29184, 127, -11008, 127,
   127, -21504, -6912, 127, -10240, 127, 127, 127,
   -8960, -13056, -31488, -11008, 127, -19200, -8704, -8960,
   -27136, 127, -11008, 127, -4096, 127, 127, -24832,
   127, 127, -13568, 127, -2816, -8448, -5120, -24320,
   127, -32256, 127, 127, 127, 127, 127, 127,
   127, -10240, 127, 127, -6400, -4608, -5888, -3072,
   -32256, -14080, -5120, -11264, -13056, 127, -32512, 127,
   -11264, 127, 127, 127, 127, 127, -1536, -24064,
   -26368, 127, 127, -32256, 127, 127, -11776, 127,
   127, 127, -7936, 127, -1024, 127, 127, 127,
   -7936, 127, 127, -5376, -7168, 127, 127, -2048,
   -27392, 127, 127, -24064, -1024, -32768, 127, -14592,
   127, -20992, 127, -3328, -11264, 127, 127, -23808,
   127, -9984, -11776, 127, 127, 127, 127, 127,
   127, -18432, 127, 127, 127, -7936, 127, 127,
   -16640, -9728, 127, -17152, -256, 127, -18688, 127,
   -29696, -24064, 127, -12544, 127, -10240, -16128, -20992,
   -5120, -15360, 127, 127, 127, -27136, 127, -7936,
   127, -6400, 127, -4608, 127, 127, -15616, 127,
   127, -32256, -32000, 127, 127, 127, 127, -25088,
   127, -6144, 127, -24576, -32000, 127, 127, -1024,
   -23040, 127, -10240, 127, -17664, 127, 127, 127,
   127, 127, -12288, -11264, 127, 127, -3328, 127,
   127, -9728, 127, -1792, -32256, -5632, -2304, 127,
   -32768, -9216, -1792, -31488, -3840, -20224, -23296, -9472,
   -32512, -31232, 127, 127, 127, 127, -9472, 127,
   -29696, -12032, 127, -11520, 127, -28416, -31488, -30720,
   -19712, -16384, -32000, 127, 127, 127, 127, 127,
   -28928, 127, -2304, 127, -19712, 127, 127, -5120,
   -31744, 127, 127, -31744, -8704, 127, -22272, -32256,
   127, -5120, 127, -4352, -6144, 127, 127, 127,
   127, 127, -11264, 127, -7424, 127, -18176, -7168,
   -16128, -29184, 127, -4352, 127, -9216, 127, 127,
   -31232, -12544, -4608, -12288, 127, 127, 127, -16384,
   -32768, 127, 127, 127, 127, -12544, 127, 127,
   127, 127, -9984, 127, -32512, 127, -8448, 127,
   127, 127, -16640, -29952, -3328, -5120, -6144, 127,
   127, -18432, -26624, 127, 127, -10752, 127, 127,
   127, 127, 127, 127, -25600, -15360, -28672, 127,
   -8448, 127, 127, -5632, -15360, -8448, -13824, 127,
   127, 127, -29184, 127, 127, 127, 127, 127,
   127, 127, 127, -512, -768, -18688, -17408, 127,
   -29696, 127, -11008, -24832, 127, -32768, -30720, -7936,
   -30464, -7424, 127, 127, -32256, -32768, -32256, -11776,
   -2304, -768, 127, -7936, -19456, -32256, -768, -27392,
   -3072, -5888, -17664, 127, 127, 127, -10752, 127,
   -17920, -32768, -7424, 127, 127, -32256, -14080, 127,
   -18176, -768, 127, 127, -6912, -17920, -16128, -16896,
   -17920, 127, 127, 127, 127, -23552, 127, -23040,
   127, -2816, -7168, 127, -2816, -16128, -4096, 127,
   127, 127, -18688, -7936, -256, -4352, -2816, -9984,
   127, 127, 127, 127, -3584, 127, 127, -30976,
   -32000, 127, 127, 127, 127, -20480, -32256, -32000,
   -31744, -12032, 127, 127, 127, -4864, 127, -1792,
   -12800, 127, -32768, -23808, 127, -13568, -9216, -22272,
   127, -32000, 127, -32256, 127, 127, 127, -512,
   127, 127, 127, 127, -32000, 127, 127, -5120,
   -12032, -29696, -30976, -1024, -2304, -8192, 127, -31744,
   -9216, 127, -32768, -18944, 127, 127, 127, -7424,
   -29440, -8192, 127, -22784, 127, -27392, 127, -4352,
   127, 127, 127, 127, -3328, -3840, -9216, 127,
   -23296, 127, -10496, 127, 127, -5888, 127, 127,
   127, 127, 127, 127, -17920, -256, -5888, -1536,
   127, 127, -5376, 127, 127, -3072, 127, -30208,
   127, 127, -27648, 127, 127, 127, 127, 127,
   -2560, 127, -28160, 127, 127, -24320, -5888, 127,
   127, -768, 127, 127, -768, -1792, 127, -6912,
   -12288, -15616, 127, -1024, 127, -15872, 127, -1792,
   -6144, 127, -12288, -15360, -1024, 127, -5120, -9728,
   -19456, 127, -12544, -24832, 0, -3840, 127, -25600,
   -12544, -24320, -25344, -29440, -2304, -10240, 127, 127,
   127, 127, 127, -6912, -27904, -24064, -30208, -26112,
   -11264, -21760, 127, 127, -1024, 127, 127, 127,
   -31232, -6656, -20224, -10752, -8704, 127, 127, -9728,
   -20224, -14848, -7936, -7936, -23040, -7680, -31488, 127,
   -14336, 127, 127, 127, -256, 127, 127, -26368,
   -1792, 127, 127, -4608, 127, 127, -17664, 127,
   -9728, -8448, -512, -25088, 127, 127, 127, 127,
   127, -12032, 127, -31744, 127, 127, -3584, 127,
   127, -512, 127, -5376, 127, 127, -20224, -9472,
   -768, -2048, -4096, 127, 127, -1280, -7168, -28672,
   127, -1536, -7680, 127, -17664, 127, 127, 127,
   127, 127, 127, 127, -1792, 127, 127, 127,
   -10240, 127, 127, 127, 127, -24320, 127, 127,
   -9984, -16640, 127, -5120, -16128, 127, -17152, 127,
   127, -14592, -12032, 127, 127, -5632, -11264, 127,
   127, -25600, 127, 127, 127, -6144, -4096, 127,
   -17664, -32256, 127, -32000, 127, 127, -17152, -31488,
   -15104, -18432, 127, 127, 127, 127, -14592, 127,
   127, -16896, -27136, 127, 127, 127, -256, -5632,
   -6400, -10240, -32000, 127, 127, 127, 127, -14336,
   -6400, -19200, -7680, 127, 127, -3328, 127, -18688,
   127, -21504, 127, 127, -30208, 127, -22272, -30208,
   -2048, 127, -6912, 127, -10240, 127, -13056, 127,
   127, -11520, -7680, -13824, 127, 127, -256, -7680,
   127, -4352, 127, 127, 127, 127, -3072, 127,
   -32512, 127, -31232, -6912, -19200, 127, 127, 127,
   -3840, -11264, 127, -32512, 127, -21504, -20736, -1792,
   127, -6656, 127, 127, 127, -32256, 127, -19456,
   127, 127, -28160, -31744, 127, -7424, -22272, -768,
   -17664, 127, 127, 127, -31488, 127, 127, -4864,
   -13056, -8192, 127, 127, -14592, -32768, -31744, -18432,
   -3328, 127, -1792, -11520, -18688, 127, 127, -6656,
   -29952, -24576, -27904, 127, -7936, -3072, 0, 127,
   -10752, -6912, 127, -20736, 127, 127, 127, 127,
   127, -32256, 127, -20992, 127, -29696, -31232, -12032,
   -27904, -21504, -32768, -8960, -14336, 127, 127, -16640,
   127, 127, -11776, -18432, -27904, 127, 127, -32512,
   -28928, 127, 127, 127, -19200, -256, 127, 127,
   -14080, -28928, -31488, 127, 127, -24576, -29440, -4864,
   127, 127, 127, 127, 127, 0, 127, 127,
   127, 127, -12288, 127, -19456, 127, -4352, 127,
   127, 127, 127, 127, -4352, 127, 127, 127,
   127, -2048, 127, 127, -32256, -5376, -16640, -2816,
   -11776, 127, -20736, -768, -30976, 127, 127, -20736,
   -21504, 127, 127, 127, 127, 127, -16896, -10752,
   -5888, 127, -6400, 127, 127, 127, 127, 127,
   127, 127, -32512, -2304, -13824, 127, -29696, -30464,
   127, 127, 127, -30720, 127, -23808, 127, 127,
   -5376, 127, -28160, -31488, -11520, 127, -27904, 127,
   -31232, -22016, -32256, 127, -3584, -30720, -11520, -11520,
   127, -32000, -31232, 127, 127, 127, 127, 127,
   127, 127, 127, -31488, 127, -21760, -29952, 127,
   127, 0, -15616, -23296, -3072, -512, -28928, -768,
   -3840, -31232, -16128, -23296, 127, 127, -28416, 127,
   127, 127, 127, -19968, -29696, 127, -14592, 127,
   -31744, 127, 127, 127, 127, 127, 127, -4864,
   -32000, -24832, 127, -1792, 127, 127, 127, -32000,
   -6656, -14336, 127, 127, 127, -32256, 127, -7424,
   127, 127, 127, 127, 127, 127, 127, -21248,
   -2048, -1280, 127, -16128, -31488, 127, 127, 0,
   -1536, -4352, 127, -28416, -13312, 127, 127, 0
};

static const rnn_weight vad_gru_recurrent_weights[1728] = {
   127, 127, 127, 127, 127, -8704, -7168, -512,
   127, 127, 127, -2304, 127, -13568, 127, -22272,
   127, 127, -20736, -8960, -32000, -7936, 127, -5376,
   127, -23296, 127, -23808, 127, -1536, 127, 127,
   -23552, 127, -6912, 127, 127, 127, 127, 127,
   -32768, -32768, -11776, 127, -9728, -11520, 127, -22272,
   127, 127, 127, -24576, -5888, -7424, 127, -32256,
   -6144, -5120, -512, 127, -12800, 127, 127, -20736,
   -32000, 127, -24064, 127, -9728, 127, 127, 127,
   -15360, 127, -12288, 127, -3840, 127, -4608, 127,
   127, 127, -13056, 127, 127, 127, 127, 127,
   -6144, 127, 127, 127, 127, 127, 127, -15104,
   127, -9216, 127, 127, -8192, -6400, 127, 127,
   -22784, -15616, -19456, 127, 127, -15872, -17408, 127,
   -28928, 127, 127, 127, -22528, 127, -19968, 127,
   127, 127, 127, -18944, 127, 127, 127, -30208,
   -3840, 127, 127, 127, -32512, 127, -1536, 127,
   -32768, -13568, -13824, -14080, -30976, 127, 127, -3072,
   -17408, 127, -6400, 127, -32256, 127, -5376, -6656,
   127, -19200, -32512, -30720, 127, 127, -16384, -27648,
   -16128, -16640, -11264, -8960, -15616, -9984, 127, -18944,
   127, -768, 127, -7680, 127, 127, 127, 127,
   -32768, -24320, -25344, 127, 127, 127, 127, -19200,
   -23552, -13824, -3072, -8192, -9728, 127, 127, 127,
   127, 127, 127, -25344, 127, 127, 127, -32768,
   -9216, -8960, -2816, -7168, -32256, -1792, 127, -14848,
   -32256, -5632, -21248, -15616, -32512, 127, 127, -2048,
   127, 127, 127, -2816, -8192, -11264, 127, 127,
   127, 127, -32512, 127, 127, -7680, -24576, 127,
   -23552, 127, 127, -4608, -32768, 127, -1280, 127,
   -1024, 127, 127, 127, 0, -14848, 127, 127,
   -17920, -256, -20224, -17408, 127, -7168, -23040, -1536,
   -28672, 127, 127, -2048, 127, 127, -15104, -32256,
   127, 127, 127, 127, 127, -13824, 127, -31744,
   -31744, 127, 127, -11776, -15616, -32512, -25600, 127,
   -19712, 127, -22272, 127, -512, 127, 127, 127,
   -18176, 127, 127, -10496, 127, -5632, -23808, -26368,
   127, 127, -14336, 127, -2048, -28416, 127, 127,
   127, 127, -30208, -6144, 127, -13568, 127, -17920,
   -1280, -4352, -17152, -21504, -1792, -20992, -27392, -24576,
   127, -21248, -14848, 127, 127, -32256, -256, -7168,
   127, -32256, 127, 127, 127, 127, -32512, 127,
   127, 127, -20736, 127, 127, -2048, 127, 127,
   -1536, 127, -6912, 127, -31488, -27904, 127, -20224,
   -4352, 127, -23552, 127, -15616, 127, 127, 127,
   127, 127, 127, 127, 127, 127, 127, 127,
   127, 127, 127, 127, -5120, -17920, 127, 127,
   127, 127, 127, 127, -20224, 127, 127, 127,
   -27136, -14592, 127, 127, 127, -16896, -28416, -11264,
   -1792, -11008, -16896, 127, 127, -32768, -11520, 127,
   127, -32512, 127, -8960, -8704, -10240, -4608, -1536,
   127, 127, 127, 127, 127, 127, 127, -18176,
   -9984, 127, 127, 127, -10240, 127, 127, 127,
   -2560, 127, -20992, -27136, -512, -12800, -13312, 127,
   -32256, -8704, -11008, -17408, 127, 127, 127, -30208,
   -32768, 127, -26624, 127, 127, 127, -19456, 127,
   -7424, 127, -24064, -3840, 127, 127, 127, 127,
   -14592, -32000, 127, -17408, 127, 127, -19712, 127,
   127, 127, -27904, 127, -2816, 127, 127, -30976,
   -1280, -2304, -32256, -29184, 127, 127, -32256, -27392,
   -13056, -10752, 127, -2048, 127, -6912, -11008, 127,
   -11520, 127, -25088, -27904, 127, 127, 0, -32000,
   -32768, 127, 127, 127, -31232, 127, -14080, -17152,
   -32256, -17920, -32768, -32000, -19712, 127, 127, -2048,
   -26112, 127, -19200, 127, 127, -1280, 127, 127,
   127, 127, -32512, -23808, 127, 127, -24832, -4608,
   127, 127, 127, -5120, 127, 127, 127, -19712,
   -20736, -11776, -2304, 127, 127, 127, -32512, -11008,
   -2048, -12800, 127, -5376, 127, -2304, -1024, -3328,
   -6912, 127, 127, 127, -12032, 127, -11008, 127,
   127, -12544, 127, 127, 127, 127, -32000, 127,
   127, 127, -256, 127, -6144, -24576, 127, 127,
   127, 127, -5376, -26880, 127, -10752, 127, 127,
   -7680, -9984, -24320, 127, -16128, 127, 127, 127,
   127, -3584, 127, 127, -15616, -1024, 127, 127,
   127, -27392, -7168, 127, -7424, 127, 127, 127,
   -11776, -22784, -4608, 127, -5120, -1536, 127, -5376,
   -5632, 127, 127, 127, -10752, 127, 127, -14080,
   -19712, 127, -6912, -15104, -25344, -3072, -32512, -10240,
   127, -768, -31744, -23296, 127, -28416, 127, -4864,
   127, -6144, -8960, 127, -10752, 127, -32256, -32256,
   -32000, 127, 127, -13312, 127, 127, -13312, 127,
   -21248, 127, -31232, 127, 127, 127, 127, 127,
   127, -32000, 127, -4096, 127, 127, -22784, 127,
   127, 127, 127, -32512, 127, 127, 127, 127,
   -27392, 127, -32000, 127, -32512, 127, 127, 127,
   127, -16896, 127, -10752, 127, 127, -12288, -29952,
   -7424, -1536, -18688, -26112, -768, -4864, 0, 127,
   127, 127, -29952, -5120, 127, 127, 127, 127,
   127, 127, 127, 127, 127, -11008, 127, 127,
   127, 127, -23296, -5632, -32256, 127, -6144, -5376,
   127, -32256, 127, -26368, -17664, -2560, -16896, -5888,
   127, 127, 127, 127, -32512, 127, -5120, -16128,
   127, 127, -29696, 127, 127, -9984, 127, -21248,
   -19712, -6400, -12800, 127, 127, 127, -27904, 127,
   -16640, -14080, -22272, 127, -32256, -8192, -18432, -27648,
   127, 127, -32000, -31744, 127, 127, 127, -32768,
   -32512, 127, 127, 127, -31744, -17408, 127, -23808,
   -32768, 127, -23808, -4864, -32000, -24832, -28928, -8448,
   127, 127, -11264, 127, -19200, 127, 127, 127,
   127, -31232, 127, 127, 127, 127, 127, -32768,
   127, 127, 127, -3584, -20992, -3328, 127, 127,
   127, 127, 127, -18176, 127, 127, 127, 127,
   127, 127, 127, 127, 127, 127, -15104, 127,
   -32256, -13568, -4096, -29696, -16640, 127, -13312, 0,
   127, 127, 127, -15616, 127, 127, 127, 127,
   -6656, -30208, 127, 127, -2560, 127, -3840, 0,
   -9984, -1024, 127, 127, -256, 127, 127, 127,
   127, 127, -15104, 127, -1536, -6400, -11008, 127,
   127, 127, 127, 127, -20992, 127, -1536, 127,
   127, 127, 0, -26880, 127, -4352, 127, 127,
   127, 127, 127, 127, -11264, 127, -28672, 127,
   -9984, -21248, 127, -23808, -25088, 127, -30720, -5888,
   -9728, 127, -7936, -12288, 127, 127, 127, 127,
   127, 127, 127, 127, 127, -3072, -5632, 127,
   -9472, -24064, 127, -256, -8192, -3072, -31744, -12032,
   -3328, 127, -19200, -16896, 127, -32512, -512, 127,
   127, -27136, 127, -12544, -7936, 127, 127, 127,
   127, 127, -28160, 127, -4096, -13568, 127, 127,
   -3584, -32000, 127, -11264, 127, 127, 127, 127,
   127, 127, 127, -14848, 127, 127, 127, 127,
   127, 127, -32512, 127, -23808, -10496, 127, 0,
   127, -3840, 127, 127, -31744, -7936, -768, 127,
   -10240, -32256, -13824, -32256, -21248, -2048, -15104, 127,
   127, -7424, 127, 127, -2560, 127, -7168, -2048,
   127, -5376, 127, 127, 127, -2048, 127, 127,
   127, 127, -15872, 127, 127, -9216, 127, 127,
   -12800, 127, 127, 127, -22528, -14080, -3584, -9472,
   127, 127, -27648, -1536, -1536, 127, 127, -7168,
   -19456, 127, -29952, -23808, 127, -23552, -11264, -16384,
   127, 127, 127, 127, 127, 127, 127, 127,
   -6656, 127, -32256, 127, -1280, 127, -4864, -28928,
   -256, 127, -5376, 127, 127, -768, 127, 127,
   -20992, 127, -12288, 127, 127, -9728, 127, -29184,
   127, 127, -1280, 127, -11776, 127, -31488, -11008,
   127, 127, 127, 127, -25856, 127, 127, 127,
   127, 127, -32512, 127, 127, 127, -2304, -512,
   127, 127, 127, 127, 127, 127, 127, 127,
   127, 127, -9728, -14848, 127, -32512, -4096, -20224,
   127, 127, -32512, -12800, -9728, 127, -21760, 127,
   127, -14336, 127, -19712, -512, 127, 127, 127,
   127, -26880, -17664, 127, -22272, 127, -26624, -13056,
   127, 127, 127, -30976, 127, 127, 127, 127,
   -2048, 127, 127, -14080, 127, 127, -4864, 127,
   -8448, -22272, -5888, 127, -28416, -17408, 127, 127,
   -30464, 127, -20992, 127, -9472, -5120, -2304, -5888,
   127, -3328, 127, -11776, 127, 127, -32512, 127,
   -32256, 127, -1792, -256, 127, 127, 127, 127,
   127, 127, -22016, 127, 127, 127, -32000, -1792,
   127, 127, -3072, -9984, -4608, 127, -24832, -2048,
   -21760, -10496, 127, -12800, 127, -9472, -32256, -7680,
   127, 127, -12544, -16640, 127, -9216, -9728, -24576,
   127, -6144, -3328, 127, -6400, -1280, -16384, -32512,
   127, -15360, -4608, -15616, -16128, 127, 127, 127,
   127, 127, 127, 127, 127, 127, -2560, 127,
   127, -5888, 127, 127, -13568, 127, 127, 127,
   127, 0, 127, 127, 127, 127, 127, 127,
   -18432, 127, 127, 127, 127, -13056, 127, -8192,
   -12544, -8448, 127, 127, 127, 127, 127, 127,
   127, -5376, -15616, -13568, -28928, 127, -24832, 127,
   127, -29184, -6912, 127, 127, 127, -2560, 127,
   127, -3840, 127, -3328, 127, -1024, 127, 127,
   127, -23296, -12800, 127, -18944, -12288, 127, -1792,
   -27392, 127, 127, 127, -6656, -5376, -15616, 127,
   127, 127, -23296, -32000, 127, -26624, 127, 127,
   127, 127, 127, -32256, 127, -1536, -20480, 127,
   127, -16896, -16640, 127, -512, 127, 127, -16384,
   127, 127, -13568, -3072, -31488, 127, 127, -5120,
   127, -4352, -24832, 127, -1024, -13568, -31232, 127,
   -4096, -13824, -24320, 127, 127, -256, -17152, -8448,
   127, 127, 127, 127, -21248, 127, -25600, -23296,
   -6912, 127, -32768, -27136, 127, 127, -3328, 127,
   127, 127, -4864, 127, 127, -2304, -2816, 127,
   127, -11008, -32000, 127, 127, -8192, 127, 127,
   -7424, 127, 127, -2048, -32256, -5888, 127, 127,
   127, -5120, -31744, 127, -512, 127, -18688, -27136,
   127, 127, 127, -5888, -11264, -18176, 127, 127,
   127, 127, 127, 127, -3840, 127, 127, 127,
   127, 127, -12800, 127, 127, 127, -32512, 127,
   127, 127, -5888, 127, -17920, 127, 127, -6912,
   127, 127, -27904, -31232, -24064, 127, 127, 0,
   127, 127, 127, 127, -8704, 127, 127, -3584,
   127, 127, 127, 127, -6656, 127, 127, 127,
   127, 127, -23808, -13824, -31232, 127, -26880, 127,
   127, 127, 127, -18176, -12800, 127, -18432, 127,
   127, 127, 127, 127, 127, 127, 127, 127,
   -15872, 127, 127, 127, -11776, -19968, -31744, 127,
   127, -10752, 127, -27392, 127, -8192, -15872, -22784,
   127, 127, 127, -512, 127, 127, -16640, -32512,
   -24320, -30976, -13312, 127, 127, 127, -768, -15872,
   -32512, 127, -18944, 127, 127, 127, 127, 127,
   -17152, -18176, -17920, 127, 127, 127, -1024, 127,
   127, 127, 127, -32256, 127, 127, -30464, 127,
   127, 127, -25344, 127, -32512, 127, 127, -11776,
   -17152, 127, -32256, -7424, 127, 127, -17664, -25088,
   -12032, -22272, -17920, -32512, 127, -18688, 127, -1792,
   127, -13312, -16640, 127, -11520, 127, 127, 127,
   -2304, -5632, -13312, -12032, 127, -256, -21760, -3840,
   -15616, -3584, 127, 127, -2560, -30976, -6400, -8960,
   -3840, -24064, -31488, 127, 127, 127, -16896, -14336,
   -11264, 127, 127, 127, -9216, 127, 127, -32256,
   127, -32512, 127, 127, 127, -8192, 127, -3328,
   -6656, -7168, -32000, 127, 127, -12800, 127, 127,
   -32256, -3072, 0, -5888, 127, -18176, -32256, -3072,
   -4352, -20992, 127, 127, 127, 127, 127, 127,
   -11776, 127, -8704, 127, 127, -32768, 127, -6144,
   -32768, 127, -30720, 127, -11520, 127, 127, 127,
   -8448, 127, -26880, -10496, -15104, -23296, 127, 127,
   -32512, 127, -17152, 127, 127, -32000, -16640, 127,
   -6400, 127, 127, 127, -31488, -23552, -8448, 127,
   -4352, -1024, 127, 127, 127, 127, 127, 127,
   -12288, -4608, -17920, 127, 127, -32512, -768, -13312,
   -256, -9216, -10496, 127, 127, -13312, -6912, 127,
   -21248, 127, 127, 127, 127, 127, 127, -9472,
   -32512, -10240, 127, 127, 127, -16896, 127, -3328,
   -18688, 127, -2048, -20480, 127, -12288, 127, -13824
};

static const rnn_weight vad_gru_bias[72] = {
   127, 127, -14592, -32256, 127, 127, 127, -19200,
   127, 127, -512, 127, 127, 127, 127, 127,
   127, 127, -4096, 127, 127, 127, 127, 127,
   127, 127, -7680, -7680, -16384, -768, -26880, -7424,
   -4352, 127, 127, 127, -8192, -2560, -15872, 127,
   -13312, 127, -27904, 127, 127, -10240, 127, 127,
   127, 127, -512, 0, 0, 127, -4096, 127,
   -6144, 127, 127, -2560, -8448, 127, 127, 127,
   -7424, 127, 127, -16896, 127, 127, 127, 127
};

const GRULayer vad_gru = {
   vad_gru_bias,
   vad_gru_weights,
   vad_gru_recurrent_weights,
   24, 24.0, ACTIVATION_TANH
};

static const rnn_weight noise_gru_weights[12960] = {
   -2560, -2048, 127, -18432, 127, 127, -9728, 127,
   127, 127, 127, 127, 127, 0, -768, 127,
   127, -9216, 127, 127, 127, 127, -13056, -10752,
   127, -2048, 127, 127, 127, 127, -15360, -15360,
   127, -4352, 127, 127, 127, -256, 127, 127,
   -11776, -25344, -12032, 127, 127, -5376, 127, -19200,
   127, -29952, 127, -5632, -19456, 127, 127, -17152,
   -12544, -16128, -8960, -2560, -5120, 127, 127, 127,
   -256, 127, 127, -13568, 127, -20224, -5120, 127,
   127, 127, -16128, 127, 127, -3328, -5888, -18944,
   -12800, -19712, -13568, -5632, -14336, 127, -8448, 127,
   127, -21760, -2304, -14592, -8192, 127, 127, 127,
   127, 127, -7680, -20736, -17408, -7424, -3584, -25088,
   -256, -15872, -8192, 127, 127, 127, 127, -5888,
   127, 127, -11008, -5120, -10496, 127, 127, -5632,
   -22528, 127, -6656, 127, 127, -11776, 127, -8448,
   -26880, -4096, 127, -4352, -14080, -256, -12032, -31232,
   127, 127, 127, 127, -256, -16384, 127, 127,
   -1280, 127, 127, -23808, 127, 127, -6400, 127,
   127, 127, -256, -19200, -2560, 127, -23040, 127,
   127, -28160, -19712, -9984, 127, -9984, 127, -24832,
   127, 127, -24832, 127, 127, 127, -20736, -29184,
   127, 127, 127, -18176, -12032, 127, -16384, 127,
   -26880, -6144, -17920, -8192, -512, -28672, -7936, -12288,
   127, 127, 127, -5376, -22784, -16640, 127, 127,
   127, 127, 127, -5376, -256, 127, -1024, -6400,
   127, -20480, -11008, 127, -1792, 127, -5120, 127,
   -3072, 127, 127, 127, -25600, 127, 127, -20992,
   -23808, 127, 127, 127, 127, 127, -14592, 127,
   -12032, -3584, 127, -5632, -14336, 127, -31488, -26624,
   127, -28928, 127, -27136, -9216, 127, -22016, -10240,
   127, 127, -1536, 127, -8192, -4352, -6656, -19712,
   -17664, 127, -8448, 127, 127, 127, -4608, 127,
   -13568, -16128, 127, -9728, -12544, -27648, -8192, 127,
   127, 127, 127, -14336, 127, 127, -5120, -13568,
   127, 127, -768, 127, 127, -768, 127, -10752,
   -5120, 127, -8704, 127, -6656, 127, 127, -3584,
   127, 127, -11520, 127, -14080, 127, -12544, -7424,
   -11264, -1280, -17920, 127, 127, -29440, -16896, 127,
   -14080, -4864, 127, -3072, 127, 127, 127, 127,
   -9216, 127, 127, -21760, 127, -21504, -4352, -32512,
   127, -17152, -26880, 127, 127, -256, -4096, -29696,
   127, 127, 127, -14592, -26624, -20736, -12544, 127,
   127, -18432, 127, -7936, -9472, -20224, 127, 127,
   127, -15616, 127, 127, -3584, -7424, 127, -13568,
   127, -15104, -5120, -6144, 127, 127, -16896, -6656,
   127, 127, -11008, -2048, -25600, 127, -1536, 0,
   127, -31488, -13824, -23552, 127, 127, 127, 127,
   127, -14848, 127, -23040, 127, -1024, 127, 127,
   127, -9728, -3840, 127, 127, -9984, 127, -4352,
   127, -5888, -16384, -17408, 127, 127, 127, -28928,
   -29440, -6912, -13056, 127, 127, -25856, 127, -10496,
   -26624, 127, -18176, 127, -22272, 127, -18688, 127,
   -8960, 0, -7680, 127, -7936, -2304, -1024, 127,
   -4864, 127, -4096, 127, 127, -13312, -27392, 127,
   127, -512, -768, 127, -10240, -512, 127, 127,
   -6656, -29696, -26880, -23040, 127, -28416, -11008, -23552,
   -768, -26624, 127, 127, 127, -21248, 127, -15872,
   127, 127, 127, -2560, 127, -24320, 127, 127,
   -8704, -31488, -1792, -27904, 127, -30464, -17152, -29696,
   -7936, 127, -16640, -8704, -32256, 127, 127, 127,
   127, -7168, 127, 127, -2304, -3584, 127, -17920,
   127, 127, -1024, 127, -12544, 127, 0, 127,
   127, -256, -6400, 127, 127, -30976, 127, -12032,
   -10496, -2816, -5632, -8192, -10240, -10496, -16896, 127,
   -32768, -7680, -7168, 127, -9984, 127, 127, -24576,
   127, -30976, 127, 127, -7424, -5120, 127, 127,
   127, -11008, 127, -19200, 127, -1024, -31488, 127,
   127, -17408, -5888, 127, -7680, 127, -32000, -12288,
   127, -30464, -19200, -18944, 127, 127, -2560, 127,
   -26368, 127, -7168, 127, -11520, 127, 127, 127,
   127, -768, -4608, -7680, -3072, -6400, -32768, 127,
   127, 127, -14336, 127, -15872, 127, -7168, 127,
   -29440, 127, -768, -20480, 127, -15872, 127, -4096,
   127, 127, -1536, 127, 127, 0, -1792, -24576,
   -2816, 127, 127, -19200, -2048, -2560, -2560, 127,
   127, 127, -10496, 127, 127, 127, -7680, 127,
   127, -4096, 127, 127, 127, -4608, 127, 127,
   -7424, -25600, 127, -2048, -25088, 127, -512, 127,
   -11520, -3840, 127, 127, -16896, -12288, -1792, -1280,
   127, -14592, 127, -20736, 127, 0, -10240, 127,
   127, 127, -3584, 127, -28928, -17408, -32512, 127,
   -19968, 127, 127, -15616, -10752, 127, -8192, 127,
   -2560, -20992, -1536, 127, 127, -12288, 127, 127,
   -26112, -8960, 127, -1280, -23296, 127, 127, 127,
   127, -22528, -7424, 127, 127, 127, 127, 127,
   -9472, -9472, 127, -1792, -9472, -3328, 127, -1536,
   -32768, -11008, 127, 127, 127, -6656, 127, -21760,
   -15104, 127, 127, -6912, 127, 127, 127, -20224,
   -3328, -13056, 127, 127, -6656, -5376, 127, 127,
   127, -6656, -19456, 127, 127, 127, -19456, 127,
   -1024, 127, 127, -3328, -5632, 127, 127, 127,
   127, 127, -14080, 127, -5888, 127, -18432, -4608,
   -23296, -12800, 127, -14080, 127, -6656, -11008, 127,
   -3584, 127, -20992, -18688, 127, 127, -5120, 127,
   127, 127, 127, -3072, -9472, -19712, -32512, 127,
   -5376, -6144, 127, -6656, -9984, -1280, -16896, 127,
   -24832, 127, 127, 127, 127, 127, 127, -16384,
   127, -8704, 127, 127, 127, 127, -512, -6912,
   127, -18688, -2560, 127, -11008, 127, 127, 127,
   127, -1280, 127, 127, -19456, 127, 127, 127,
   -27392, 127, 127, -5632, 127, -32000, 127, -12288,
   127, -4096, 127, 127, -4096, 127, 127, 127,
   127, -4352, 127, 127, -5888, -7168, 127, -13056,
   -12288, -256, 127, 127, 127, 127, -10240, 127,
   -5632, -5888, 127, -1024, -768, -1536, 127, 127,
   -8192, 127, 127, 127, -25856, -5888, -2560, -9728,
   -3328, 127, -8704, 127, 127, -1024, 127, 127,
   -18432, -21248, 127, -7936, -12544, -17408, 127, -768,
   127, -4864, 127, -24064, -1024, -2048, -7936, 127,
   -5376, 127, -15360, 127, 127, -2304, 127, 127,
   127, -13056, 127, 127, 127, -8192, 127, -13056,
   -25344, 127, 127, -16128, -16384, 127, 127, 127,
   -6144, -18944, 127, -1536, 127, 127, -6400, 127,
   127, 127, 127, 127, 127, 127, -10752, 127,
   127, -16384, -22272, -17408, 127, -19968, -8448, 127,
   -15360, 127, 127, 127, 127, 127, 127, -12032,
   127, -14336, 127, -7424, -256, -16896, -7424, 127,
   127, -3072, -17152, 127, -13568, -23040, -7936, -31488,
   127, 127, 127, -1536, 127, -15616, -3584, -1536,
   127, -512, -10496, 127, 127, -5376, -6144, -5888,
   -8704, 127, -12544, -10496, -6912, 127, -14336, 127,
   127, 127, -5888, 127, -12544, 127, -9472, 127,
   127, -5376, -4864, 127, 127, 127, 127, 127,
   -9984, 127, -14848, -256, 127, -16128, 127, 127,
   -3584, -1792, -10496, -8704, -6144, -6400, 127, -3584,
   -7680, 127, -15872, 127, -13312, 127, 127, -4608,
   -7424, 127, -5120, 127, 127, 127, -12032, 127,
   127, -23296, -11776, 127, 127, 127, -4608, 127,
   -7168, -3072, 127, -7424, -14592, -3328, -5120, 127,
   -3840, 127, 127, -6656, 0, -7680, -4608, 127,
   127, 127, 127, 127, 127, -24064, -7680, 127,
   -1024, -15872, 127, 127, 127, 127, -2816, -20224,
   -10496, 127, -7168, 127, 127, -14848, 127, -16384,
   127, 127, 127, -12544, -6400, -8704, 127, 127,
   127, -2048, -10752, -8704, 127, -3584, -3328, 127,
   -25088, -1280, 127, 127, -512, -256, -1536, -13312,
   127, -8448, 127, -9728, 127, -29440, -5888, 127,
   127, 127, 127, -9472, -8192, 127, -4864, -2048,
   127, 127, -9984, -7168, 127, 127, -7424, 127,
   127, -12800, 127, 127, 127, -5632, 127, -6144,
   -29440, 127, -3328, -7168, 127, -2048, 127, -4608,
   -16384, 127, 127, 127, 127, -2560, 127, -8704,
   127, -2560, 127, 127, -15104, -14080, 127, 127,
   -25088, 127, -4352, -12032, 127, 127, 127, 127,
   127, -21760, -16640, 127, -13824, -4864, -10240, 127,
   -17408, -15616, -21760, 127, -20736, 127, 127, -4352,
   127, -8448, -7936, -11264, 127, -1536, -7424, -8192,
   -512, 127, -7936, -4096, 127, 127, -13824, -4608,
   127, -22528, -11264, 127, -13056, -8704, 127, 127,
   -4096, -3840, 127, -7168, -9472, 127, -13312, 127,
   127, -15360, 127, -4608, -12544, 127, -30720, -256,
   127, -15616, -7168, 127, -29184, 127, -15616, 127,
   -12288, -16384, 127, 127, 127, 127, 127, -29952,
   -8960, 127, -19200, 127, 127, 127, -16128, 127,
   -3840, -7168, -2304, -10496, 127, 127, -1024, 127,
   127, -22784, -2048, -2560, 127, 127, -2816, -23040,
   -2048, 127, -23552, -9728, 127, -5632, -9216, 127,
   -9472, -9728, -32256, -18944, -1280, -3072, -2048, -1024,
   -7168, -12032, -7680, -7680, -1536, 127, -1280, 127,
   127, -4096, -21248, -18688, -13056, 127, -25344, -2560,
   -512, 127, -4608, -4352, -13568, 127, -5376, 127,
   127, -29696, -5120, -8448, 127, -11264, 127, 127,
   -18944, -14592, -16640, -32512, -8448, 127, 127, 127,
   -15360, -256, -4608, 127, -7680, 127, 127, -6144,
   -3840, 127, 127, -5632, 127, 127, 127, -6912,
   -20992, 127, 127, 127, 127, -3584, -11008, -9216,
   -4864, 127, 127, 127, 127, -8960, -4864, -3072,
   -256, 127, -13568, 127, -32512, -23808, 127, -16128,
   -14848, -32256, 127, 127, -13312, 127, -10496, 127,
   127, -2304, 127, 127, -10752, 127, -2816, -6400,
   -256, 127, 127, 127, 127, -1536, -13824, 127,
   -7168, 127, 127, -4352, 127, -2048, -11264, -5120,
   127, -5120, 127, -11776, -512, -20736, 127, 127,
   -16896, 127, 127, 127, -13056, -14080, -6912, 127,
   127, -1280, -3072, -14592, 127, -25088, 127, -3072,
   127, -2048, -3328, -2048, -4352, -13312, -27904, 127,
   -7936, 127, 127, -5888, -5632, -2816, 127, 127,
   -2816, -13312, -17664, 127, 127, -5888, 127, -8960,
   -1024, -16640, 127, 127, 127, -3584, -26624, 127,
   -6656, -7424, -2048, 127, -512, 127, -32512, -1024,
   -27136, 127, 127, -512, -18176, 127, 127, 127,
   127, -18944, -30976, 127, 127, 127, -8448, 127,
   127, -4608, -2304, -11008, 127, -2816, 127, -4864,
   -31232, 127, 127, 127, -10240, -4608, 127, -6400,
   -7168, 127, 127, -26112, 127, -9984, -1792, -22784,
   -9728, -4352, 127, 0, -12800, 127, 127, 127,
   127, 127, 127, 127, 127, -30464, -21504, -2048,
   127, 127, 127, 127, 127, -18944, -7424, 127,
   127, -19200, 127, 127, -9728, -11520, -20480, -23040,
   127, 127, 127, -19456, -31232, 127, -20992, -8704,
   127, -8192, -25600, -22784, 127, -3584, 127, 127,
   -10496, 127, 127, -20480, -16128, 127, -4352, 127,
   127, -4352, 127, -4352, 127, 127, -13312, 127,
   127, -17152, -4096, -4608, -14592, 127, -3584, 127,
   -18688, 127, 127, 127, 127, -6144, -3072, 127,
   -3840, 127, 127, -6656, -13056, 127, 127, -19968,
   -1280, -30720, 127, 127, -1536, -6400, -12544, 127,
   127, -16896, 127, 127, 127, -10496, -8192, 127,
   127, -12800, -22272, -8704, 127, 127, 127, -9216,
   127, -13056, -32512, -5632, -26112, 127, -14848, -5888,
   127, -7424, -8448, 127, 127, -11264, 127, -9216,
   -5376, 127, -23040, -8704, 127, -1536, 127, -8960,
   127, -3584, 127, 127, -512, -6400, -6912, -18432,
   -16128, 127, -27904, -3328, -28928, 127, -11520, 127,
   127, 127, 127, -12032, 127, 127, 127, 127,
   -5376, 127, 127, -3840, -16384, -8704, -29184, 127,
   127, 127, 127, 127, 127, -21504, -13824, -12288,
   -16640, 127, -2048, 127, -4096, 127, 127, 127,
   -25856, 127, -6144, 127, -6656, 127, -9728, -20480,
   127, -31488, 127, -8448, -5120, 127, -256, -10240,
   127, -3328, 127, -9984, 127, -1280, -2816, -5888,
   -2560, -4352, -6400, 127, 127, -3328, -8704, -4864,
   -8960, -4608, -5376, 127, -5376, -768, -4864, 127,
   -512, 127, 127, 127, -14336, 127, -1280, -9728,
   -15360, -2816, 127, 127, 127, -13568, -2304, 127,
   127, -15872, 127, -2816, 127, 127, 127, -2048,
   -32512, 127, -6400, -9472, -18688, 127, -4096, 127,
   127, 127, -4352, -23040, -23296, 127, -30720, -9984,
   -2304, 127, -32768, 127, -13312, -27392, -6912, 127,
   127, -7936, 127, 127, -6656, 127, -2560, -7936,
   127, 127, 127, -16640, -11776, 127, -23040, 127,
   127, -9472, -20736, 127, -15616, 127, -1024, 127,
   -2304, -8704, -8448, -8448, -7168, -12544, 127, -23808,
   127, -20480, 127, -14336, -12800, -11520, 127, -16640,
   -24832, 127, -30976, 127, -28928, 127, 127, -5376,
   127, 127, 127, 127, -28672, 127, 127, 127,
   -17920, 127, 127, -6912, -31488, -4096, 127, 127,
   -1280, 127, -24320, -1792, -256, 127, -2304, 127,
   127, 127, 127, -1792, -11520, -4096, -16896, 127,
   -8704, -30208, -4096, -8192, -8704, -11264, 127, 127,
   -19968, 127, 127, -6912, 127, 127, -7168, 127,
   -7680, 127, -2048, 127, -14336, 127, 127, -6144,
   -15872, 127, -6400, -7936, 127, 127, 127, 127,
   127, -1024, -19968, 127, 127, 127, -768, -4352,
   127, 127, -512, 127, -18176, -7936, 127, -6656,
   127, -20736, -13056, -24320, 127, -13312, -14592, -7936,
   -2560, 127, 127, 127, -768, -31232, -23808, 127,
   127, -17920, -7168, -23296, 127, 127, -24064, 127,
   127, 127, -14080, 127, 127, 127, -8704, 127,
   127, -8704, -9472, -1024, -512, 127, 127, -11264,
   127, -11776, -1280, -18432, -26624, -24064, -14336, -7680,
   -15104, 127, 127, 127, 127, 127, -24576, 127,
   -29184, 127, -16384, 127, 127, -20992, 127, -2560,
   127, 127, 127, -4864, 127, 127, -9472, 127,
   -4864, -30720, 127, -2560, 127, -8704, 127, -29696,
   -9472, 127, -7680, 127, 127, 127, -10752, 127,
   -512, -6656, 127, 127, 127, -1280, -8704, 127,
   -7424, 127, -13056, -11264, 127, -4352, 127, -10752,
   127, -13312, -6144, -3584, 127, 127, 127, -2304,
   -1280, -20736, -512, 127, -17152, 127, 127, 127,
   -3328, -1536, -1792, -9216, -13824, -1536, -1024, 127,
   -7424, -6912, -7168, -14336, 127, -256, 127, -6144,
   -12288, -5888, -5120, 127, -512, -1024, -7936, 127,
   -11520, 0, -4608, -18688, -7424, 127, 127, -5120,
   127, 127, -15872, 127, -8192, -4608, -11264, -9728,
   127, 127, 127, -14336, 127, -8704, -12288, -1792,
   127, -14080, 127, -24320, 127, 127, 127, 127,
   -3328, 127, -18432, 127, 127, -8448, -13312, 127,
   127, 127, -6400, -2560, -19712, 127, -6400, -256,
   -3584, 127, 127, 127, -7168, 127, 127, -11008,
   -6656, 127, -7680, -22016, -17408, 127, 127, -12800,
   127, -14336, -2816, 127, 127, -2816, 127, 127,
   127, 127, 127, 127, -22272, -14848, 127, 127,
   -2816, 127, -12288, 127, 127, -3072, 127, -11776,
   127, 127, 127, -12544, -6144, -6912, 127, -1536,
   -7936, 127, 127, 127, 127, -16640, -8960, 127,
   127, 127, 127, -3328, -31744, 127, -13824, 127,
   127, 127, 127, 127, -4864, -11520, 127, 127,
   -8192, 127, -8448, -17408, -13056, 127, -4096, 127,
   127, 127, -2048, 127, 127, -21248, -5376, 127,
   127, 127, -11776, -15104, 127, -1792, 127, 127,
   127, 127, 127, 127, 127, -9472, -256, -512,
   -24832, -14592, -23552, -9472, 127, -19200, 127, -7936,
   127, -11264, -2560, 127, -512, 127, 127, 127,
   127, 127, 127, 127, -10496, 127, 127, 127,
   -26880, 127, -512, -8192, -29696, 127, 127, 127,
   127, -5120, 127, 127, -10752, -7168, -10496, -2560,
   127, 127, 127, 127, -4608, -9216, 127, 127,
   127, -18432, -6912, 127, 127, -3328, -30464, 127,
   -4608, -3584, 127, -3072, 127, 127, 127, -3840,
   -16896, -11776, -4608, 127, 127, 127, 127, -7168,
   127, 127, 127, 127, -5120, -27136, -6912, 127,
   -11520, -20992, 127, -26368, 127, -3584, -31232, 127,
   127, -32768, 127, 127, 127, 127, -18176, -2560,
   -5376, -25344, -26368, 127, -30720, 127, 0, 127,
   -25600, 127, 127, 127, -7168, -256, 127, -11776,
   -768, -5632, -9472, -2816, -20992, -20992, -32768, -5376,
   -4096, -1024, -2304, -17664, -1280, 127, 0, -16128,
   127, 127, -3584, 127, 127, 127, 127, -2048,
   127, -31232, -11264, -8192, 127, 127, -768, 127,
   127, 127, 127, 127, 127, -10752, 127, -2816,
   -5888, -5888, 127, 127, -512, 127, 127, -5120,
   -256, 127, -5120, 127, 127, 127, -1792, -12800,
   127, 127, 127, 127, -4864, 127, 127, 127,
   127, 127, -4096, -1536, 127, 127, -12288, -3072,
   127, 127, 127, -13824, -1792, -11008, 127, 127,
   127, 127, -12288, -24832, 127, 127, 127, -6400,
   127, 127, 127, 127, -15104, 127, -15360, -24064,
   -11520, -11520, 127, -768, -17664, 127, 127, 127,
   127, 127, 127, -3584, -8192, -1024, 127, -9728,
   127, -9216, 127, -12288, -14336, -12544, -6144, 127,
   -18688, 127, 127, -10240, 127, 127, 127, -4608,
   127, 127, 127, 127, -8192, 127, -8448, -1536,
   -10496, 127, 127, -7936, 127, 127, 127, -16896,
   127, -9984, -13056, 0, -7936, 127, 127, 127,
   -12800, -768, -3328, -2560, -1280, 127, 127, -3328,
   -14592, 127, -8448, 127, -21504, 127, -14592, -9472,
   -2560, -11776, -20480, -27648, 127, 127, -9216, -7168,
   -11264, 127, -32000, 127, 127, -768, -8448, 127,
   127, 127, -14336, -10496, 127, -10752, -6400, 127,
   -17152, -22016, -7424, -1792, 127, -22784, 127, 127,
   127, -5376, 127, 127, -6912, -4864, -8960, 127,
   127, -1024, -25600, -26112, -24064, -4864, -4608, -7680,
   -9216, 127, -512, 127, -23808, 127, 127, 127,
   -18688, -25856, -11520, 127, 127, 127, -8448, 127,
   127, 127, -18176, 127, -9728, -3328, -6656, -3328,
   -4096, 127, 127, 127, -6656, -14080, -4352, -3328,
   127, 127, -2048, -9472, 127, -1280, 127, -2560,
   127, 127, 127, -6144, -13312, -2816, -14080, -2304,
   -9472, -8448, 127, 127, 127, -24320, -16640, 127,
   -3328, -19200, -5632, 127, 127, 127, 127, 127,
   127, 127, -12032, 127, -9216, -1280, -768, 127,
   127, 127, 127, -17664, 127, -3840, -4608, 127,
   127, 127, -1792, 127, -7424, 127, -5120, 127,
   127, -13824, 127, -17920, -13312, 127, 127, 127,
   127, 127, -16128, 127, 127, 127, 127, -9984,
   127, -8960, 127, -10240, 127, -7168, 127, -1792,
   -12544, -3072, 127, -4096, 127, 127, 127, -11776,
   -2560, 127, -20736, 127, -3328, 127, -256, 127,
   -4864, 127, 127, 127, -4352, 0, -21760, -23808,
   -22016, -2560, -9472, 127, -1536, -15872, 127, 127,
   127, 127, 127, 127, -4352, -10752, -7168, -24576,
   127, -5632, 127, 127, 127, 127, -29440, 127,
   -8704, 127, -7680, -19968, -21760, 127, 127, -8192,
   -7424, -24832, 127, 127, 127, 127, 127, 127,
   127, 127, -15360, 127, -14080, 127, 127, 127,
   127, -26368, -5120, -2816, 0, 127, 127, -1280,
   127, 127, -8192, -3072, 127, 127, 127, -8192,
   -31744, -512, -22528, 127, -13056, 127, -1024, -13568,
   -11776, 127, 127, 127, -18432, 127, -10496, 127,
   127, -7424, -768, -1024, -2304, 127, 127, -2560,
   -18432, -3584, -20992, -23040, -7936, 127, -30720, -12288,
   127, 127, -1536, 127, -3840, 127, -4096, -22784,
   127, -32000, -18432, 127, 127, 127, -13824, -512,
   -2560, 127, -7168, -768, 127, -5632, 127, 127,
   127, -15616, -2304, -29952, 127, -6144, -26880, -29952,
   -29440, 127, -30720, 127, -15872, -19712, 127, 127,
   127, -10496, -2304, 127, 127, 127, 127, -3072,
   -4096, 127, -12544, 127, -31232, -11776, 127, 127,
   127, 127, 127, -7168, -18176, -32000, 127, 127,
   -11776, 127, -11520, -4096, 127, 127, -1792, -30464,
   -11008, -4096, 127, -2816, 127, 127, -8704, 127,
   -1280, -13568, 127, 0, -31744, 127, 127, -6656,
   127, 127, 127, -3072, 127, -9472, 127, -13824,
   127, -13824, -2304, 127, 127, 127, -7168, 127,
   127, 127, 127, -23040, -14848, 127, -5376, -20736,
   -3328, -9984, 127, 127, -512, 127, 127, -4096,
   127, 127, -18688, 127, 127, 127, 127, -26624,
   127, -8960, -4352, 127, -14848, 127, 127, 127,
   -31488, 127, 127, 127, -10240, -1024, -24320, -5376,
   -28160, 127, 127, -4864, -24832, -1280, -12800, -25600,
   -5888, -7680, 127, -16896, -4608, -9728, -12288, 127,
   -2304, -6656, -18176, 127, 127, 127, 127, 127,
   127, -14336, 127, 127, -22272, 127, -1792, -7168,
   127, 127, 127, -4352, -6656, 127, 127, 127,
   127, 127, 127, 127, -14336, -9216, 127, -29440,
   127, -20480, -11264, -1792, -8192, -3328, 127, -15616,
   127, -22784, 127, 127, 127, -15616, 127, -5376,
   -16896, -8704, -32256, -1536, 127, 127, -3584, 127,
   -7168, -12032, -15104, -3072, 127, -9728, 127, -10752,
   127, -22272, 127, -1024, 127, 127, 127, 127,
   127, 127, -12800, 127, 127, 127, -1024, 127,
   -4608, 127, -6912, -19200, 127, -3328, 127, 127,
   -12544, -8704, -8448, 127, 127, 127, -10496, 127,
   127, 127, 127, -13312, 127, 127, 127, 127,
   -5632, 127, -5376, 127, -4096, 127, -512, 127,
   -24064, -7680, -21248, -23552, 127, -10496, -28928, -6912,
   -13056, -31488, 127, -29696, 127, -17408, -3584, 127,
   -5376, -1280, 127, -7936, -3840, -1024, -6912, -6144,
   127, -30976, -30464, -7680, -9472, -18944, -8192, -16128,
   -11776, -17664, -18432, -11264, 127, 127, 127, -4096,
   127, -4096, -8192, -28416, 127, -6400, 127, 127,
   -15104, -17664, -21248, -9216, -6144, -23040, 127, 127,
   -5888, -4096, 127, 127, 127, -12800, 127, 127,
   127, 127, -3072, -7424, -2816, -11520, 127, 127,
   -7168, 127, -8192, -10240, -23552, -2048, -19456, -13312,
   127, 127, 127, 127, 127, 127, -3584, 127,
   -16640, 127, 127, 127, 127, -7680, 127, 127,
   -1024, 127, 127, 127, 127, 127, -14848, -25344,
   -7680, -30464, 127, 127, -5888, 127, 127, -16128,
   127, -21504, -2048, 127, -15104, -512, -25088, -1536,
   127, 127, -6656, -256, -5120, 127, 127, -16896,
   -14336, 127, -10240, -1792, 127, -20224, 127, 127,
   -14080, -3072, -5120, -31488, -9984, -6400, -16640, -3072,
   127, 127, 127, 127, 127, 127, -5632, 127,
   127, 127, 127, 127, -8192, -12032, -27392, 127,
   -12800, -11008, 127, -256, -3584, 127, 127, 127,
   127, 127, 127, 127, 127, 127, 127, 127,
   -15872, -1792, -3328, -4096, -2048, 127, -9216, -22784,
   -3328, 127, 127, 127, -8960, 127, 127, -32512,
   -7936, 127, -21248, 127, -31232, 127, -20992, -26880,
   -14848, 127, 127, -7936, 127, 127, 127, -23552,
   127, -15104, 127, -8448, -8448, 127, -9472, -5632,
   127, 127, 127, 127, 127, 127, 127, -11264,
   127, 127, -768, 127, -15872, 127, -6656, 127,
   127, 127, 127, -18688, 127, 127, 127, 127,
   0, -21248, -3840, -25856, 127, -6656, 127, 127,
   127, 127, -3840, 127, 127, -17152, 127, 127,
   -12288, -7936, -7168, 127, 127, -3840, -11776, 127,
   -4352, -17920, 127, 127, 127, 127, -18432, -11520,
   -256, -7936, -13312, 127, 127, -4352, -4608, -18176,
   127, -16640, -2816, 127, -6400, 127, 127, -17920,
   -3584, -2048, -4096, -3328, 127, 127, -23296, -20480,
   127, 127, -8448, -15104, -3072, -5120, 127, 127,
   127, -4096, -22272, -3328, -2816, -3584, -3584, 127,
   -512, -768, -30464, -4352, 127, -4352, -5888, 127,
   127, 127, -24832, -10752, -5888, -2304, -1280, -2816,
   -11008, 127, 127, -9472, 127, -768, 127, 127,
   127, -25088, 127, -3584, -12800, -9216, 127, 127,
   127, 127, 127, 127, 127, 127, -1792, 127,
   127, 127, -23808, 127, 127, 127, -6656, -5888,
   -8192, -7168, 127, 127, 127, 127, 127, 127,
   -27904, -1280, 127, -6400, -10240, 127, -24576, -29952,
   -3072, -1024, -3840, 127, 127, -17920, -1024, -23808,
   127, 127, -16896, -11520, -17920, -30208, -8448, 127,
   -1536, 127, -13824, 127, 127, 127, 127, -1024,
   127, 127, -24576, -3328, 127, 127, 127, 127,
   -15616, -7168, 127, -4352, 127, 127, -15616, 127,
   127, 127, 127, -6656, -11008, 127, 127, 127,
   127, 127, 127, -768, 127, 127, 127, 127,
   127, -3840, 127, -18432, -12288, -2816, 127, 127,
   127, -10240, 127, -9728, -768, 127, -20736, 127,
   127, 127, -12288, -16896, 127, 127, -5632, 127,
   127, 127, -22272, -8960, -12800, -22784, -30976, 127,
   127, 127, 127, 127, -768, 127, -6144, -25600,
   127, 127, 127, 127, -7936, -15872, 127, 127,
   127, -31744, -3840, -6656, -4352, -6656, -14080, 127,
   -5632, 127, -8960, 127, -12288, 127, 127, 127,
   -8960, -3584, -2048, -8704, 127, 127, 127, -2048,
   -512, -29184, -9728, -18688, -7168, -14592, 127, 127,
   -5632, 127, 127, 127, -11776, -11008, 127, 127,
   -17152, -1536, 127, -6912, -6144, -9728, -6144, -20480,
   -5376, 127, -8192, -21504, 127, 127, -5632, 127,
   -13824, 127, -24064, -7168, 127, -7680, -11776, 127,
   127, 0, 127, 127, 127, 127, 127, 127,
   -19456, -17664, 127, -18176, 127, -16640, -23040, -10240,
   -11008, -14336, -4096, -13568, -2816, -2816, 127, 127,
   -4096, 127, 127, 127, -9728, -2304, -20736, -22016,
   -12800, -4096, -9984, -4608, -2816, -2560, -17664, -11264,
   -14848, -12544, 127, -16128, 127, 127, 127, -20736,
   -9216, 127, 127, 127, 127, 127, 127, 127,
   127, 127, -512, -25088, -14080, 127, 127, 127,
   127, -3584, -3072, -1536, -10496, -17664, 127, -31232,
   127, 127, 127, -3840, 127, -25088, 127, -7168,
   127, 127, -27392, 127, 127, 127, 127, 127,
   127, -17920, -2048, 127, -28160, -2304, 127, -21248,
   127, 127, -28160, 127, 127, 127, 127, 127,
   127, -8448, -4608, -8704, 127, -768, 127, -12800,
   127, 127, 127, 127, -4864, 127, 127, 127,
   127, -4608, 127, -13056, 127, -22016, 127, 127,
   -26368, 127, 127, -11008, 127, 127, -7936, -2560,
   -4352, -16640, -20992, -23552, -4352, 127, 127, -2304,
   127, 127, 127, 127, 127, 127, 127, 127,
   127, 127, -16384, 127, 127, -256, -4096, -5376,
   -6400, -15104, 127, -1792, 127, -8960, -7168, -4352,
   -4096, -11776, -6400, -6400, -20224, -8448, -28672, 127,
   127, 127, -1536, 127, 127, 127, -13824, -9984,
   -23296, -24064, 127, -32768, -16896, 127, -1792, -23808,
   -30720, 127, -12032, 127, -28416, -14848, 127, -1280,
   -12288, 127, -4608, -26624, -17920, -19968, 127, -1792,
   127, -2048, -24576, 127, -30464, -32000, 127, -27392,
   127, 127, -9728, -12288, 127, -5376, 127, -11520,
   -16640, -24064, 127, 127, -25600, 127, -10496, 127,
   127, -31232, -14080, 127, 127, 127, 127, -17408,
   127, -10496, -28928, 127, 127, 127, 0, -4352,
   -10752, -16896, -2816, -27392, -22016, 127, 127, 127,
   -27648, 127, -7168, 127, -14080, -24576, -5888, 127,
   127, -7680, 127, -24064, 127, -4608, 127, -19712,
   -15360, 127, -32000, -7168, 127, -8704, -23296, 127,
   -3072, -12800, 127, -2048, 127, 127, -4608, -15872,
   127, -9472, -14080, 127, 127, -7680, 127, 127,
   -10752, -14336, -32768, 127, -8960, -4096, -20736, -2048,
   -7680, -15104, -5632, -28416, 127, -11520, -19456, 127,
   127, -18432, -8704, -7168, 127, -1280, -29696, 127,
   127, -2304, -14336, -12288, 127, 127, -24832, -5376,
   -30976, -29696, -1536, -6144, -15872, -6656, -5376, -17664,
   -13312, -12288, -5632, 127, 127, -8960, 127, 127,
   127, 127, -4608, 0, -19456, 127, 127, -2560,
   127, 127, -3072, 127, 127, -26880, -6400, -28672,
   127, 127, -2048, 127, -9728, -30464, -5376, 127,
   127, -32000, -512, 127, -1536, 127, 127, 127,
   127, -26624, 127, -10752, -512, 127, -8448, 127,
   127, -7680, -5888, -21248, -15360, -256, 127, 127,
   -15104, -2560, -1536, -2816, -17408, -24576, -13568, -768,
   -2304, -4352, -4352, 127, 127, -3840, -30976, -10240,
   127, 127, -9728, -6656, 127, -12032, -20480, -10240,
   -29696, -8704, -7680, -19456, -8960, -9984, -30208, 127,
   0, -17152, 127, 0, -1280, -512, 127, -3840,
   -256, -24064, -19200, -15872, 127, -1536, -23296, 127,
   -3840, -2048, -31744, -6400, -11776, 127, -5632, 127,
   127, -12800, 127, 127, -1792, 127, 127, 127,
   127, -8960, -18688, -30720, -7680, -3584, -28928, -19712,
   127, 127, -4096, -12800, -5376, 127, -24832, 127,
   -15616, -10240, 127, -26624, 127, 127, -4352, 127,
   127, 127, 127, -15616, -8704, -7168, -2048, 127,
   127, 0, 127, -28928, -30976, -16640, -5376, 127,
   127, 127, -4096, 127, -1280, -256, 127, -15616,
   -7680, 127, -1792, -14080, 127, 127, 127, -8448,
   127, 127, -15360, 127, -19200, 127, 127, -10240,
   -4096, 127, -22016, 127, 127, -14592, 127, 127,
   -2048, 127, -32256, -10752, 127, 127, 127, 127,
   127, -9728, -11520, -19968, -8448, -27904, 127, 127,
   -20224, -256, 127, 127, -5120, -10752, -17152, -3328,
   -6144, -17664, 127, -9728, -5632, -29440, 127, 127,
   -26624, 127, -8960, -29184, 127, 127, -20480, -1280,
   127, -2048, -2816, -14848, 127, -7424, 127, -4608,
   -1024, 127, -3072, 127, 127, 127, 127, -3584,
   127, -3328, 127, -2048, 127, -9472, 127, -7680,
   -9472, -9984, -512, -29952, -3072, -3584, -768, -2560,
   127, -6912, 127, 127, -8192, -6400, -25856, -29440,
   -10240, -2048, -1280, -9728, 127, 127, 127, -15872,
   127, -6400, 127, -7424, 127, 127, -8192, 127,
   127, 127, 127, 127, 127, -14592, 127, 127,
   127, 127, -8448, 127, 127, 127, 127, 127,
   -256, 127, 127, -5888, -4608, -4096, 127, 127,
   127, -15872, 127, -15360, -6400, 127, 127, 127,
   127, -11264, -4864, 127, 127, 127, 127, -2048,
   127, -7936, -16384, 127, -8704, 127, 127, 127,
   -4864, -1792, -15104, 127, 127, -7936, 127, 127,
   -14080, -768, 127, -512, 127, -28928, 127, -10496,
   -1536, -3328, 127, 127, 127, -5120, -8704, 127,
   -11264, 127, 127, 127, -2304, 127, -3328, -16640,
   -12800, 127, 127, 127, -2560, 127, -5376, -11008,
   -5376, -6144, 127, -21248, 127, 127, -13824, 127,
   -5120, -12288, 127, 127, -4352, 127, -3840, 127,
   127, 127, 127, -8704, 127, -1024, 127, -15104,
   -256, 127, 127, 127, 127, -13824, -10496, 127,
   -19712, -3840, 127, 127, 127, 127, 127, -8960,
   127, 127, 127, -5376, 127, -1280, -5632, -17152,
   -30208, 127, 0, 127, 127, 127, -30720, 127,
   127, -7168, 127, 127, 127, 127, -13312, 127,
   127, -2816, 127, -4352, -10240, -7168, 127, -3584,
   -6912, -3072, 127, 127, 127, -28928, 127, -12288,
   -9472, 127, 127, 127, 127, -7680, -7680, 127,
   -19968, -24576, 127, -20480, -4096, 127, -7168, 127,
   127, -31488, -12032, -1792, 127, -6400, 127, -19456,
   127, 127, -22784, -10240, -12544, 127, 127, 127,
   -7424, -3584, -11008, -32512, 127, -25600, -20224, -4096,
   -4864, 127, -6912, 127, -7680, -16640, 127, 127,
   127, -3072, -10496, -7424, -4352, -17408, 127, 127,
   127, 127, 127, -2816, 127, -1280, -13568, 127,
   -3584, 127, 127, -17408, 127, 127, -16128, -31488,
   -7936, -9984, -17152, 127, -1536, 127, -768, 127,
   127, 127, -7936, -2816, -14080, -16128, -23040, 127,
   -2816, 127, -7936, -32512, 127, 127, 127, -18944,
   -11776, 127, -256, -31232, -11776, -11264, -28928, 127,
   127, 127, -11264, 127, 127, -6656, -30208, 127,
   -17920, 127, 127, -7424, 127, -19456, 127, 127,
   -24064, 127, 127, -6656, 127, 127, 127, 127,
   -5120, -21248, 127, -9216, -5888, -13568, 127, -13568,
   -9728, 127, -8704, 127, -15104, -512, 127, 127,
   -768, -7424, 127, -12288, 127, 127, 127, 127,
   -5632, -3072, 127, -1792, -2048, -13312, 127, -16896,
   127, -16384, -13568, -5376, -21248, 127, -5120, -9984,
   127, 127, -19200, -3328, -3072, 127, 127, 127,
   -4352, 127, -768, -24832, 127, -22272, -1792, -9984,
   -4864, -3584, -16384, 127, 127, 127, 127, -5888,
   -5888, 127, -5376, -20736, -9728, 127, 127, 127,
   127, -256, -27136, -6656, -31232, -11520, -6400, -15616,
   -1792, -11520, 127, -768, -2048, 127, 127, -9728,
   -3584, -10496, -7936, -2560, 127, 0, -13824, -9472,
   127, 127, -13312, 127, -512, 127, -512, 127,
   127, -3840, 127, -7424, 127, -19712, 127, 127,
   -13568, -16896, -3584, -19968, 127, 127, 127, -11008,
   127, 127, 127, 127, -8448, 127, 127, -3584,
   127, -7168, 127, 127, -8192, 127, -19712, 127,
   -7936, 127, 127, 127, 127, 127, -11776, 127,
   127, -4352, -2816, -16384, -6912, 127, -13824, 127,
   -256, -2048, -26112, 127, 127, 127, 127, 127,
   -9216, -5376, 127, -6912, -4096, -3072, 127, -1792,
   -3328, 0, -29952, 127, 0, -13568, 127, -23296,
   -15616, 127, -7680, -26112, -11008, 127, 127, -12288,
   127, -10240, 127, 127, -4864, -3328, 127, 127,
   127, 127, -4096, 127, -9472, 127, -9472, 127,
   127, -20224, -14080, -10752, 127, 127, -2048, -7936,
   -4864, 127, -7936, -18944, -8960, 127, -5376, 127,
   -19456, -2048, -14592, 127, -2304, 127, -11776, 127,
   -7680, -3840, -256, -11008, 127, -2304, -768, -18432,
   -768, 127, -15872, -23296, -1280, 127, 127, 127,
   0, -11776, -11264, -2048, 127, 127, -768, 127,
   127, 127, -27392, 127, -11520, 127, 127, -18432,
   -5888, -6400, -23808, -29696, 127, -256, -9216, -6400,
   -1024, -15104, 127, -5632, -22528, 0, -5120, 127,
   127, 127, 127, 127, 127, 127, -9984, 127,
   127, 127, 127, 127, 127, 127, -5120, 127,
   127, 127, 127, -2816, -30208, 127, 127, 127,
   -4864, 127, 127, 127, 127, -2304, 127, 127,
   -3840, 127, 127, 127, 127, -24064, 127, 127,
   127, -13824, -11008, 127, 127, 127, 127, -12544,
   127, -11520, -1536, 127, -2560, 127, -7680, -14336,
   127, 127, -23552, 127, 127, 127, 127, 127,
   127, 127, -13824, -30720, -21248, 127, -256, 127,
   127, 127, 127, 127, -12288, 127, -11776, -768,
   -5632, 127, 127, -9728, -13056, -4864, 127, -3584,
   -22528, 127, -9984, 127, -1024, -14336, -25600, 127,
   -10240, -18432, 127, -8448, -1536, 127, -16384, -31232,
   -10240, 127, -30464, -26112, -17664, 127, -4864, -2048,
   127, 127, -32768, -9472, -7168, -10240, -512, 127,
   -1024, -5632, -3840, 127, -512, -8960, 127, -30208,
   -1024, -19712, -256, -32512, -8960, -4864, -17408, -14848,
   -18432, -1024, 127, -256, -3840, -1024, -32000, 127,
   -27648, -2304, 127, -30976, -1536, 127, 0, 127,
   -30208, 127, -3328, 127, -13312, -18432, -18432, 127,
   -15616, -4608, -9472, 127, -28672, 127, 127, -30464,
   127, 127, 127, 127, -17408, -30720, 127, -5376,
   -3072, 127, 127, -28672, 127, 127, 127, 127,
   -16128, -5120, -15616, 127, -6144, 127, -4864, 127,
   127, -1024, -5632, 127, 127, 127, 127, -6912,
   -18432, -7680, -13312, -10752, 127, -11264, -17152, 127,
   -16640, 127, -16384, -9216, -32512, -1280, 127, 127,
   -28672, -2048, 127, 127, 127, -8192, 127, 127,
   -768, 127, 127, -5888, -27904, 127, -25344, -2304,
   -2560, 127, -5376, -256, 127, -7936, -13824, 127,
   -12544, -1280, -21248, -15616, 127, 127, -512, 127,
   127, -21760, -19968, -2304, 127, -6144, 127, 127,
   -2560, 127, -3584, -1024, 127, -24832, -1792, -4352,
   -1024, -6144, 0, -17664, 127, 127, -16128, 127,
   127, 127, -9216, 127, 127, -14592, -10496, -26368,
   -8704, 127, -22528, 127, 127, 127, 127, -9472,
   -6656, -2048, -5632, 127, 127, -11264, 0, -13824,
   127, 127, -24832, 127, 127, 127, -4352, 127,
   127, -29696, -22016, -20480, -16384, -4608, -6656, -12032,
   127, -28416, -4096, 127, 127, 127, 127, 127,
   -2816, 127, -512, -7936, -13056, 127, 127, 127,
   127, 127, -1024, -2048, -20992, 127, -8704, 127,
   127, -16128, 127, -10496, 127, 127, -3840, -4608,
   -3328, 127, -8448, -8704, -19200, -26368, -20992, -10496,
   127, -14336, 127, 127, -21504, -14336, 127, 127,
   -16896, -18944, -768, -5888, -30208, -4864, -8704, 127,
   -11264, -2048, 127, -9472, -2304, 127, -14848, 127,
   127, -32768, -3840, -1280, -32256, 127, 127, 127,
   -3840, 127, -9472, -8960, 127, -32000, -4096, 127,
   -8704, -10496, 127, -19712, -256, 127, -23296, -16896,
   127, -9728, 127, -23040, 127, -4608, 127, 127,
   127, -5632, -2816, 127, -2560, 127, -18176, 127,
   -3328, 127, -10496, 127, -31744, 127, -10752, -3840,
   -7424, 127, -2048, -10496, -21504, -4352, 127, -18688,
   127, -7936, 127, 127, 127, 127, 127, -6400,
   127, 127, 127, 127, 127, 127, 127, 127,
   127, 127, 127, -23808, 127, 127, 127, -768,
   -32512, -23040, -6400, -6656, 127, 127, -3584, 127,
   -11776, 127, 127, -6912, -768, -13568, -3072, 127,
   127, 127, -3840, 127, 127, -24320, -4608, 127,
   127, -4352, 127, -8960, -2816, 127, 127, -7680,
   -19968, -768, 127, 127, 127, -256, 127, 127,
   127, 127, -9472, -12800, 127, 0, -4096, 127,
   127, -4608, 127, 127, 127, 127, 127, -32256,
   -2048, 127, 127, -30976, -13056, -2304, 127, 127,
   127, 127, -27392, 127, -8960, 127, -9216, 127,
   -8960, -15872, -5888, -4864, 127, 127, -13312, 127,
   -17920, 127, -31232, -5888, -13824, 127, 127, 127,
   127, -15360, -2304, 127, -9728, 127, -15872, -9728,
   127, 127, -3840, 127, 127, -10752, 127, 127,
   127, -31744, 127, -13568, -13312, 127, -4096, -2560,
   127, 127, -7424, 127, 127, 127, -2816, -5632,
   127, 127, 127, 127, -22528, 127, -22016, 127,
   -16128, -4096, 127, 127, 127, 127, 127, 127,
   127, -11520, -14848, 127, -7680, 127, -25088, 127,
   -8960, -18432, -1792, -13312, 127, -22784, 127, -25088,
   127, -21760, 127, 127, 127, -2816, 127, -512,
   127, -768, -768, 127, -9472, 127, 127, -25088,
   127, -8960, 127, -18688, 127, 127, 127, -9728,
   127, -11776, 127, 127, 127, 127, 127, 127,
   127, 127, 127, -7168, 127, 127, -30464, -10752,
   127, 127, 127, -17152, 127, 127, -9216, 127,
   -15872, 127, 127, -12032, -768, -4352, -10240, 127,
   -12288, 127, -17152, -7936, -8960, 127, -16384, 127,
   -4608, -8704, 127, -12288, 127, -7168, -1536, -17408,
   127, 127, -17920, -19968, -6912, 127, -5120, 127,
   127, -11008, -8960, -5888, 127, 127, -12544, 127,
   127, 127, -3840, -6656, -10496, 127, -4096, -7168,
   -2048, -6144, 127, -22272, -5632, 127, -6656, 127,
   -4096, -8960, 127, -1280, -6912, -1792, -18944, 127,
   -20736, 127, 127, 127, -3840, 127, -28416, -16384,
   -17920, -13568, 127, -2304, -7680, -3584, 127, -13056,
   127, 127, -3328, 127, -18944, -1792, -9984, -9216,
   -768, -7680, 127, -8192, 127, -5120, 127, -15616,
   -16128, -13568, 127, 127, 127, 127, 127, -9984,
   -10752, -11008, 127, 127, 127, 127, -7680, -1536,
   127, 127, 127, -7936, -5632, 127, 127, -13568,
   127, 127, -4608, -12544, 127, -14592, -3328, 127,
   127, -256, -1792, -5376, -1536, -25600, 127, -17664,
   127, -13568, 127, 127, 127, -6144, -6912, 127,
   -16128, -7168, -6656, -2304, -3328, -16640, 127, -7168,
   -3328, 127, 127, -1024, -5120, -1280, 127, -10496,
   -4608, 127, -4096, -4352, 127, -13312, -8192, 127,
   -6656, -2048, 127, -10752, 127, 127, -3840, 127,
   -3328, -5120, -1792, -3584, 127, -9216, 127, 127,
   127, 127, -9728, -18944, 127, 127, 127, -8704,
   -5632, 127, -10496, -4864, -15360, 127, -14592, -3072,
   127, 127, 127, -4608, 127, -10752, -5888, 127,
   127, 127, 127, 127, -28416, 127, -25088, 127,
   -29184, -16128, 0, -4864, 127, 127, -8448, 127,
   -1792, 127, 127, 127, 127, 127, -4096, 127,
   -3840, -32512, -1280, 127, -13056, 127, 127, 127,
   -26624, -1792, 127, 127, -5376, -26368, 127, 127,
   127, -5376, 127, -16384, -5888, 127, 127, -20992,
   0, 127, -13824, -13312, 127, 127, 127, -12544,
   127, -18176, 127, 127, -13568, -31744, -11008, 127,
   127, 127, -1280, 127, 127, -5888, -24064, -14592,
   127, -20224, 127, 0, 127, -5376, -15616, -4864,
   -9472, 127, -2816, -13568, 127, -2560, -17408, 127,
   -31744, -7680, -15104, -6400, -2048, -7424, -32000, 127,
   -9216, -7168, -16384, -2048, -1280, 127, 127, -5120,
   127, -32256, -13824, 127, -256, 127, -4608, 127,
   -4864, -31488, -16384, 127, 127, 127, 127, 127,
   127, -3072, -10496, 127, -17664, -19200, 127, 127,
   -7424, -16896, -7936, -20224, -21760, -2560, 127, -2560,
   -21248, -30976, -2560, -4352, -23040, 127, -32768, -13056,
   127, 127, -4864, 127, -31488, 127, -4352, 127,
   127, 127, 127, 127, 127, 127, 127, 127,
   127, 127, 127, -24576, -4096, -5120, -11520, -30720,
   -3328, -25088, -32256, 127, -26624, 127, 127, 127,
   -256, 127, -12800, 127, -6144, -16896, 127, 127,
   127, 127, 127, -6144, 127, -4352, 127, -14592,
   127, 127, 127, -2304, -6400, 127, -4096, -29440,
   127, -1536, 127, 127, 127, -11520, 127, 127,
   127, 127, -5632, -6656, -8192, 127, 127, 127,
   -7680, -2048, -512, 127, 127, 127, -15872, -26624,
   127, 127, -19200, -21760, 127, -13056, -256, 127,
   -24832, 127, -17152, 127, -8704, -19200, -15872, -1024,
   -14080, -8704, -6144, 127, 127, -5120, -1024, -13824,
   -15872, -1792, 127, -32256, -256, 127, 127, 127,
   127, -11264, -19456, -3328, -12544, -7168, 127, -1536,
   127, 127, 127, 127, -5632, -512, -10240, 127,
   -8704, -8960, -23296, -14592, 127, 127, -3840, 127,
   -6912, 127, 127, 127, 127, 127, -28672, -768,
   -7680, 127, -8448, 127, 127, 127, -5120, -12288,
   -5888, 127, 127, -7680, 127, 127, -18432, 127,
   127, -4096, 127, -5376, -4096, 0, 127, 127,
   127, -4864, -3584, 127, 127, 127, -1536, -15104,
   127, 127, 127, -7424, 127, 127, 127, 127,
   127, -27392, -22784, 127, -7424, -2304, 127, -768,
   -3328, 127, 127, 0, 127, 127, -5888, 127,
   -13312, 127, 127, -10496, -12032, 127, -4864, 127,
   -3328, -4352, -14336, -1536, -256, 127, -7168, -15104,
   127, 127, 127, 127, -29184, 127, 127, -8960,
   -9984, 127, -7680, 127, -29952, -11520, -18944, 127,
   -6656, 127, 127, -25344, -6144, 127, -15360, -9472,
   -3840, 127, -7424, -256, -512, -4864, 127, 127,
   -2048, -12032, -3840, 127, -19968, 127, -8448, 127,
   -2816, -3584, -1536, -7424, 127, -14592, 127, -5632,
   127, 127, 127, -30208, -5632, -20736, 127, 127,
   127, -6400, 127, -5632, -24832, -3072, -18688, 127,
   127, 127, -9216, -12288, -16128, -6144, -4096, -7936,
   127, -17152, -2816, 127, -3328, 127, -7936, 127,
   127, -27392, 127, 127, 127, 127, -7680, 127,
   -15616, -32768, -12544, -23552, 127, -26368, -9472, 127,
   -5376, -23296, 127, 127, 127, -21504, -6144, 127,
   -3840, -9728, 127, -768, 127, 127, 127, -17152,
   127, -3840, -19200, -3328, -18176, 127, 127, -30208,
   -22528, 127, -8704, -17664, 127, 127, 127, -23296,
   127, -1280, 127, -3584, -8192, 127, 127, 127,
   -6912, 127, -1280, 127, -16640, 127, -5376, 127,
   127, -10240, 127, 127, 127, 127, 127, -12800,
   -5888, 127, -23040, -3328, 127, 127, 127, 127,
   -32768, 127, -26368, 127, -13568, -18432, -7936, 127,
   -10752, -16128, 127, -14848, 127, 127, -6144, -29696,
   -12288, -5120, -10496, -9984, 127, -12032, -13824, -6912,
   127, -12800, -29696, -9728, -19456, 127, -9984, -9728,
   127, 127, -19200, 127, -15872, 127, 127, -5888,
   -5376, -9728, -24320, -30208, -18176, -2816, -6400, 127,
   -13312, -30208, -512, -2816, -29952, -9728, -30464, 127,
   -6144, -13568, 127, 127, 127, 127, -9472, 127,
   127, -13824, 127, -21248, 127, 127, -4096, 127,
   127, -8960, 127, -3840, -16128, 127, -1536, 127,
   -5888, -16384, -31488, 127, -7424, 127, -5888, 127,
   -14848, -11776, 127, -18688, 127, -13568, -2048, 127,
   -2304, -6144, -8448, -12288, 127, 127, 127, 127,
   -12288, 127, 127, -5632, 127, 127, -6656, -21760,
   -16896, 127, 0, -12544, 127, -4608, 127, 127,
   -3328, 127, -3584, 127, -7424, -1024, -22784, 127,
   127, 127, -3840, 127, -1792, 127, -1792, -15104,
   -2560, 127, -23552, -7424, 127, -15360, 127, 127,
   -1536, 127, 0, 127, -25344, 127, -11776, 127,
   127, 127, -5376, -2816, 0, -10496, -3840, -7168,
   -9216, 127, 127, -10752, -14592, 127, -2304, -2816,
   -5888, 127, -26368, 127, -7168, 127, 127, -22016,
   127, -1792, -5632, -1536, 127, -2816, 127, -8192,
   127, -11520, 127, -32000, -9984, -5120, -3072, 0,
   -5120, 127, -4352, -4352, 127, 127, 127, 127,
   127, -25600, -26368, 127, -32512, 127, 127, -2560,
   -23808, -15360, 127, -6912, -5888, 127, 127, 127,
   -19200, -7936, 127, -2560, 127, -26624, -17408, -1536,
   127, 127, 127, 127, 127, 127, 127, 127,
   -13312, -1024, 127, 127, -29952, -4096, 127, 127,
   127, 127, 127, -10496, 127, 127, -3328, 127,
   -3072, -4352, -2816, -23040, -30208, 127, 127, -16128,
   -8192, -12288, -12800, 127, -6400, -5120, 127, 127,
   127, 127, 127, -1792, 127, 127, -5120, 127,
   127, -7168, -5376, 127, -10496, 127, 127, -12032,
   -24064, -1280, 127, -20992, -15360, -4096, -5632, -18688,
   127, 127, -8960, 127, -8704, 127, -5120, 127,
   -7168, -512, -8704, 127, 127, -13568, 127, 127,
   -11008, 0, -12288, -19968, -1280, -1792, -9472, 127,
   127, -5632, 127, -2560, 127, 0, -5888, 127,
   -3584, -8448, -2816, 127, 127, -16384, 127, 127,
   127, -14336, -25856, 127, 127, 127, -5632, -16896,
   -256, 127, 127, 127, -6912, -14592, -1792, -1792,
   -18432, 0, 127, 127, 127, 127, -22272, 127,
   -768, 127, 127, -11008, 127, 127, 127, 127,
   127, -8960, 127, -10240, -23296, 127, 127, 127,
   127, -10752, 127, -21504, -2304, -10240, 127, 127,
   127, -3584, 127, 127, 127, -31488, 127, 127,
   127, -15616, 127, 127, -5888, 127, 127, 127,
   127, -19456, -3584, -8960, -1536, 127, 127, -14592,
   127, 127, -20736, 127, 127, 127, 127, 127,
   127, -5888, -12288, -3584, 127, -2304, -15872, -12288,
   -4608, 127, -11520, 127, -2048, 127, 127, -4352,
   127, 127, -14848, -13568, 127, -8960, 127, -20480,
   -6656, 127, 127, -9984, -19456, 127, -2304, 127,
   127, -6656, 127, -12288, -4352, 127, -2560, -32256,
   -14592, -5632, -32512, -5120, -12800, 127, 127, 127,
   127, -5888, -16128, 127, -16384, 127, -9728, -2816,
   -23296, -11008, -1536, 127, -5376, 127, 127, -30720,
   -14848, 127, 127, -3328, 127, -6912, 127, -1792,
   -5376, -21248, 127, -7168, 127, -19712, -11520, -3840,
   -24832, -20480, -6400, -7424, 127, -11008, -13056, -1792,
   -768, -10240, 127, -17152, 127, 127, -9728, 127,
   127, 127, 127, 127, -7168, -1536, 127, -4352,
   -5888, 127, 127, 127, 127, -24832, -16384, -30464,
   127, 127, -29440, 127, 127, 127, -10496, 127,
   127, -19712, 127, -7936, -3840, 127, 127, 127,
   127, -16896, 127, -10240, 127, -1280, -11776, -11264,
   -6400, 127, -23808, 127, -30464, 127, 127, 127,
   127, -256, -7424, -31744, 127, 127, -17152, -10496,
   -12032, -14080, -6912, 127, -7680, 127, -22528, 127,
   -12544, -1024, -22528, -4352, -2560, -1792, 127, -12288,
   -7680, 127, 127, 127, 127, -5888, -28672, -8192,
   127, -8960, 0, -17920, 127, 127, -16640, -32768,
   127, 127, 127, 127, 127, -6144, -4096, 127,
   -10752, 127, -32512, -23296, 127, -28672, -12288, 127,
   -12288, 127, 127, -31488, -1024, 127, -8960, 127,
   127, 127, -512, -32256, -8704, 127, -31488, 127,
   127, -6912, 127, -21760, 127, -7168, -31488, -13056,
   127, 127, -15360, 127, 127, -18176, -17152, 127,
   127, 127, 127, -7168, 127, 127, 127, -11520,
   127, 127, -22528, 127, -25088, 127, 127, -7936,
   127, -27904, 127, 127, -17408, 127, 127, -19456,
   -9728, -3584, -21760, 127, 127, -7168, -8704, 127,
   127, -2304, -6912, -6912, 127, 127, 127, 127,
   127, -17408, 127, 127, 127, -6144, -5888, -1024,
   -11520, 127, -21504, 127, 127, -8192, 127, 127,
   -4864, -1792, 127, 127, -11008, 127, 127, 127,
   127, 127, 127, 127, -256, -5120, 127, 127,
   -7680, 127, -11520, -1280, 127, 127, 127, 127,
   -11008, 127, 127, 127, 127, 127, 127, 127,
   127, -2560, 127, 127, 127, 127, 127, -13056,
   127, 127, 127, 127, -2816, -11776, 127, -6656,
   -12800, 127, -2304, 127, 127, -32256, -9472, -4096,
   -16896, 127, 127, -7168, -2560, 127, -7936, 127,
   127, 127, 127, -2560, 127, -4352, 127, 127,
   127, 127, -1280, -7936, 127, 127, -18688, -11264,
   127, -1280, -512, 127, 127, 127, 127, 127,
   127, 127, 127, 127, 127, -9472, 127, 127,
   127, 127, -3840, 127, -6656, 127, -1280, -256,
   127, 127, 127, -1792, -1280, -3072, -3072, 127,
   127, -6656, -4864, -2304, 127, 127, -2560, 127,
   127, -768, 127, 127, 127, 127, -3328, -1280,
   127, -4352, -1536, 127, -2048, -4096, 127, -8960,
   127, -8192, -15872, 127, 127, -1536, 127, -1280,
   -4096, -2560, -12032, -2560, 127, -2304, 127, 127,
   127, 127, -4608, 127, 127, -1280, -5888, 127,
   -5376, -8960, -17920, 127, 127, 127, -15872, 127,
   -2304, -3840, 127, 127, 127, 127, 127, 127,
   0, -2304, 127, 127, -1280, 127, 127, -256,
   127, -1792, 127, 127, 127, -9984, 127, -6912,
   127, 127, 127, -768, -256, -2304, -768, -256,
   -6912, -512, 127, -768, 127, 0, 127, 127,
   -2816, 127, 127, 127, 127, 0, -2048, -3328,
   127, -256, 127, 127, 127, -1536, 127, -3840,
   127, 127, -3584, -4352, -4096, -3840, -6656, 127,
   -1792, 127, 127, 127, 0, -2816, 127, 127,
   127, -3584, -11008, 127, 127, 127, 127, -1280,
   127, 127, -3072, 127, -6400, -4608, 127, -16128,
   127, 127, 127, -13312, 127, -13824, -6912, 127,
   -6912, -8960, -13568, 127, -2560, -3584, 127, 127,
   -5888, -2560, 127, 127, 127, 127, -4864, 127,
   -16896, -9728, 127, -4608, 127, 127, 127, 127,
   -2304, -7424, -8704, 127, 127, 127, -4352, 127,
   127, 127, 127, 127, 127, 127, 127, -7424,
   127, 127, -10496, -3072, -1024, 127, -10496, -6912,
   -768, 127, 127, -5120, 127, -3840, 127, 127,
   -8960, -9728, -8448, -2304, 127, -14336, -9728, -2304,
   -2304, -14080, 127, 127, -3840, 127, 127, -11008,
   127, 127, -17408, -2816, 127, -8448, -512, 127,
   127, -2048, 127, 127, 127, -3840, -5888, 127,
   127, -11264, 127, -13312, 127, 127, 127, -10240,
   -14080, 127, -10240, 127, 127, 127, -11520, 127,
   -4352, 127, -5888, -6656, -512, 127, -3840, 127,
   127, -256, 127, -6144, -768, -9216, -8448, 127,
   127, -5376, -256, 127, 127, 127, 127, -1792,
   -3328, 127, -2304, -5888, -8448, -16896, -3328, -11264,
   127, -4608, 127, 127, -5888, -17408, -1792, 127,
   -3072, -25088, -8192, -1024, -1536, -3328, 127, 127,
   -7680, -1280, -6912, -10240, 127, 127, -10240, -3328,
   127, -8960, -4352, -10240, -6144, 127, -23040, 127,
   -256, -14848, 127, 127, 127, -3840, -26880, 127,
   127, 127, -1792, 127, 127, -6144, -22784, 127,
   -5376, -2048, 127, -18944, 127, -22016, -3584, 127,
   -20736, 127, -12800, 127, 127, -2304, -9728, 127,
   -3072, -16384, -2560, 127, 127, 127, 127, -6400,
   -5632, -29440, -11008, -1280, -512, 127, 127, 127,
   127, 127, -15360, 127, -12288, -12032, 127, 127,
   127, -768, 127, -4352, 127, 127, -4352, -3584,
   127, -5632, -6144, -28160, 127, 127, 127, 127,
   -7936, 127, -2560, -5376, -1792, 127, -15616, -5632,
   -12800, 127, 127, 0, 127, -2048, -8960, -6656,
   127, 127, 127, -3072, -2560, -1792, -11520, -1280,
   127, -4352, 127, -2816, 127, 127, -6656, -4096,
   -10240, -5120, 127, 0, 127, -13312, 127, -8448,
   127, -6656, -3072, 127, -4352, -4864, -3072, 127,
   127, -19456, 127, -1280, 127, 127, 127, 127,
   127, 127, -17408, -4608, 127, -8448, 127, -512,
   -13312, -11008, 127, -4608, -1536, -5120, 127, -1024,
   127, -15104, -5376, 127, -4608, -11520, 127, 127,
   127, 127, -6144, -21760, 127, -14336, 127, 127,
   -3584, -8960, 127, -4608, 127, -8448, -19712, -9216,
   -31488, 127, 127, 127, -3840, 127, -10496, -5376,
   127, -4864, 127, -2560, -3072, -6912, -29184, -6400,
   -2048, -7936, 127, -1024, 127, -6912, 127, -1280,
   -256, -2560, 127, 127, -17920, -14080, 127, 127,
   127, 127, -14592, -7680, 127, -5120, -256, 127,
   -12288, -2560, 127, -5376, 127, -6912, 127, -6400,
   127, -5120, 127, 127, -768, -9984, -9216, 127,
   -10752, 127, 127, -3072, -3328, 127, -7168, -13312,
   127, 127, -3328, 127, -1536, -1024, -9472, 127,
   -3072, 127, -2304, 127, -7680, -6400, 0, -1536,
   127, -2304, 127, 127, 127, -8192, -11008, 127,
   127, -1024, -2304, 127, 127, 127, -4608, -31232,
   -15104, 127, -8960, -6656, 127, 127, -5888, -10496,
   -6656, 127, 127, -13824, -9728, -13568, -256, 127,
   127, 127, 127, -12544, -10240, 127, 127, 127,
   127, -13824, 0, 127, 127, -19456, 127, -19200,
   127, -14848, 127, 127, -6144, -4352, 127, 127,
   -8192, 127, 127, 127, 127, 127, 127, 127,
   -7168, 127, 127, 127, 127, 127, -11776, 127,
   127, 127, 127, 127, -6144, 127, 0, 127,
   127, 127, 127, -1536, -512, -2048, 127, -2048,
   -1792, -2304, -256, 127, 127, -15104, 127, 127,
   -9216, 127, -19200, 127, -9472, 0, -11008, -6912,
   -3840, -19968, -2816, 127, 127, -3072, -10496, -9216,
   -22272, 127, -9216, 127, 127, -7424, 127, -15360,
   127, 127, 127, 127, 127, -1280, 127, -11520,
   -512, -7168, 127, 127, -8192, 127, -2048, 127,
   -6912, 127, 0, -19200, 127, -13312, 127, -512,
   127, 127, 127, 127, 127, -4608, 127, -15360,
   127, 127, 127, 127, 127, 127, 127, -5376,
   127, 127, 127, -1792, 127, -11008, 127, -17920,
   -5888, 127, -3584, -6144, -10496, 127, -6400, -30976,
   127, 127, -4864, 127, 127, 127, 127, 127,
   -768, -7936, 127, 127, -768, -15104, -30720, 127,
   127, -2816, 127, -32256, -32768, 127, 127, 127,
   127, -9216, 127, -4096, -4608, 127, -26368, -32256,
   -4096, 127, 127, -10240, 127, 127, 127, -11264,
   -256, 127, -3584, 127, 127, 127, 127, -1536,
   127, -2048, 127, 127, -13824, -1536, -2048, -1792,
   -9728, -5888, -4096, 127, 127, -4864, -3328, 127,
   -17920, 127, -5632, -2048, -17152, -768, 127, 127,
   -5632, 127, -1536, 127, 0, 127, -12544, 127,
   127, 127, 127, 127, -6400, 127, -2048, -2048,
   127, 127, -19200, -6400, -512, 127, -11776, 127,
   -31488, -14848, -23552, -32512, -5888, 127, -32000, -8192,
   127, 127, 127, 127, 127, -12032, 127, -20480,
   127, 127, 127, 127, -32512, -30208, 127, 127,
   127, -23808, 127, -9728, 127, 127, -13312, -29952,
   127, 127, -30720, 127, -18944, -1792, 127, -6656,
   -27392, 127, 127, 127, 127, -1792, 127, 127,
   -20992, 127, 127, 127, -32512, -20736, -31232, -17664,
   -26880, -7168, -1536, -4096, -3072, 127, -28928, 127,
   -12288, 127, 127, 127, -32256, -1536, 127, -18432,
   127, 127, 127, 127, 127, 127, 127, 127,
   127, -4352, 127, 127, 127, -31744, -7424, 127,
   -32768, 127, -4608, 127, 127, -17920, -32000, -5120,
   -16640, -12544, -11264, 127, 127, -3072, 127, -7936,
   -26880, -30720, 127, 127, 127, -32000, -14336, -11776,
   -17920, 127, 127, -13824, -32256, 127, -30976, -9984,
   -16896, -32000, 127, -3328, 127, -6144, 127, -2048,
   127, -3584, -23808, -13312, -19968, 127, -6912, -13312,
   127, -32768, 127, 127, 127, -1280, 127, 127,
   -30976, 0, 127, -768, 127, 127, 127, -10496,
   -1792, 127, 127, -2560, 127, -6912, -23296, -28672,
   -32768, -32000, 127, 127, -32000, 127, 127, 127,
   -32512, 127, -1280, -9472, 127, 127, 127, 127,
   -32000, 127, 127, 127, -9472, 127, -10240, -16128,
   -256, 127, 127, -2048, 127, -14336, 127, -4096,
   127, -24576, 127, 127, -1536, 127, 127, 127,
   -1024, -24320, 127, 127, 127, 127, 127, -21504,
   127, -16896, -11776, -6400, -14848, -19456, -32000, 127,
   127, -14592, -19200, -14336, -16384, 127, -31488, 127,
   -13568, -21248, -1792, -28416, 127, -32256, 127, 127,
   -16640, 127, -17152, 127, 127, 127, -31232, 127,
   -16384, -2048, 127, -27136, 127, -14080, 127, -1024,
   -13312, -9728, 127, 127, -30464, -24320, -2048, -32512,
   127, -5888, 127, -15360, -13824, 127, 127, 127,
   -32768, -11776, -32512, 127, -10240, -9728, 127, -2048,
   -32000, -32512, -31744, -32768, -3584, -14336, 127, 127,
   127, -31488, -9472, -32768, 127, 127, 127, -22528,
   -17152, 127, 127, 127, 127, -21248, 127, -7680,
   -11264, 127, 127, -10752, -5888, 127, -256, -18688,
   -19456, -31744, 127, -1280, -14848, 127, -28672, 127,
   -14592, -25600, -512, 127, 127, 127, 127, -32512,
   127, 127, -6912, 127, 127, 127, -32000, -30720,
   -28928, 127, -32512, 127, 127, 127, -31744, 127,
   -32000, 127, 127, 127, 127, 127, 127, -12032,
   127, -26112, -3584, 127, -5120, 127, -20992, -30976,
   127, -28672, 127, 127, 127, -4352, 127, 127,
   -11776, 127, 127, -14336, -32512, -13568, 127, 127,
   127, -21760, 127, -32256, -25600, -7424, 127, -30976,
   127, 127, -5376, 127, 127, -19712, 127, 127,
   127, 127, 127, -1024, -28672, -7680, 127, -8704,
   127, -26368, 127, 127, -17408, -27904, -9216, 127,
   127, -30464, 127, 127, 127, -25344, -22784, 127,
   -13568, -30976, 127, 127, -11264, -9984, 127, 127,
   127, -32512, 127, -3072, -17152, -23296, 127, 127,
   127, -31232, 127, -21504, -2048, 127, 127, -256,
   127, -14080, 127, 127, -15616, 127, -2816, -26112,
   127, 127, 127, -1024, 127, -23808, 127, 127,
   127, -6144, 127, -2304, 127, -32512, 127, -11008,
   127, 127, 127, -8192, 127, -24320, 127, -2304,
   127, 127, 127, 127, -26624, 127, -7424, -14592,
   127, -29184, 127, -10496, -28928, 127, 127, 127,
   127, 127, -9984, -6912, -7680, -30720, 127, 127,
   127, 127, 127, 127, -10496, 127, -28672, 127,
   127, 127, 127, -32256, 127, 127, -31744, -8192,
   -3328, 127, -23552, 127, -8448, -11776, -3328, 127,
   127, -32512, 127, -27904, -24832, -14592, 127, -27648,
   127, 127, -32512, -21504, 127, 127, -24576, -31744,
   127, 127, -30976, -27392, -28928, -3584, 127, 127,
   127, -13568, 127, 127, -11264, -8448, 127, -19200,
   -32512, -31232, 127, -6912, 127, 127, 127, 127,
   -17920, -4096, -8960, -31232, -30464, 127, 127, -22016,
   -4608, -28928, -18944, 127, -21248, -31488, 127, -256,
   -3584, -30464, 127, -5120, -31232, 127, -4608, 127,
   127, 127, 127, -27392, 127, 127, -31488, 127,
   127, 127, 127, -32768, 127, 127, 127, -13568,
   -6912, 127, -2560, -1792, 127, -13056, -30464, 127,
   -18944, -28928, -11520, -9216, 127, -30720, 127, -20480,
   127, 127, -26112, -5632, -27648, 127, -31232, 127,
   127, -32512, 127, -8448, -2048, 127, -256, -1024,
   -15872, 127, 127, 127, -31744, -28416, -17152, 127,
   127, -31232, -6400, 127, 127, -18688, 127, 127,
   127, 127, 127, 127, 127, 127, 127, -1280,
   127, 127, 127, 127, 127, 127, -28928, -28672,
   127, -27136, 127, -29184, -20992, 127, 127, -32512,
   -30976, 127, -31744, -2048, -32256, 127, 127, -32256,
   127, 127, 127, -17408, -21248, 127, 127, 127,
   -16384, -7680, 127, 127, -32256, -31744, 127, -32768,
   -30464, -256, 127, 127, 127, 127, 127, -5632,
   127, -6656, 127, -31232, -8960, 127, -2816, -27648,
   -32768, -24320, -28416, 127, -31488, -20224, 127, 127,
   127, 127, 127, -8704, 127, 127, 127, 127,
   -1280, 127, 127, 127, -15616, 127, -768, 127,
   127, 127, -22272, 127, 127, 127, 127, 127,
   127, 127, 127, 127, 127, -31744, -6912, -6400,
   -20224, 127, 127, -18176, 127, -3584, 127, -31488,
   127, 127, 127, 127, -15104, 127, -27136, 127,
   127, -17408, -29696, -14336, -19968, -3328, 127, 127,
   127, -7424, 127, 127, -27392, -8192, 127, -10496,
   127, -32256, 127, 127, 127, 127, 127, 127,
   127, -30720, 127, 127, 127, 127, -3328, -2816,
   127, 127, 127, 127, -5376, 127, -16896, 127,
   -17664, 127, -30208, -32768, 127, -3072, 127, 127,
   127, 127, -30976, -18944, -18432, 127, -20992, -14080,
   127, 0, -16640, -9984, -31744, 127, 127, -5120,
   127, -5376, 127, 127, -30464, -32000, 127, -32000,
   -9216, -24064, 127, -8704, -31488, 127, -6144, -15616,
   127, -2560, -16128, -3584, -19456, -768, 127, -27904,
   -256, -32256, 127, 127, 127, -21248, 127, 127,
   -4352, -8448, 127, 127, 127, -32256, -7936, 127,
   127, 127, -5376, -9472, -8448, -4864, -13056, 127,
   127, 127, 127, 127, 127, -22016, 127, 127,
   -3072, -5632, 127, -12288, -7168, -29952, -15360, -768,
   -15360, 127, -7424, 127, 127, 127, 127, -21248,
   127, -22528, 127, 127, 127, 127, -2816, -22016,
   -17152, 127, -4608, 127, 127, -25600, -31488, 127,
   127, -20480, -11264, -9984, -3584, 127, -31232, -32256,
   127, 127, 127, 127, -15616, 127, 127, 127,
   127, -31744, -2304, 127, -30464, 127, 127, 127,
   127, 127, -1792, -14592, -26368, -26624, 127, -7680,
   -32000, 127, 127, -30976, 127, -1280, 127, -12544,
   127, 127, -17664, 127, 127, 127, 127, 127,
   -3072, -2304, 127, -1024, -31232, 127, -13824, 127,
   -4352, 127, 127, 127, -29952, -32512, 0, -23296,
   127, -1536, -26368, -9984, -32256, 127, -1792, -4864,
   127, 127, -9216, 127, 127, -16640, -22784, 127,
   127, -12032, -31744, -13568, 127, -13568, -3840, 127,
   127, -14336, 127, 127, -13824, 127, -19456, 127,
   127, -30976, -17920, -12288, 127, 127, -32768, -2048,
   127, 127, 127, -1280, 127, -31744, -32768, 127,
   -32768, 127, -25344, -22528, -32768, -30976, -17920, 127,
   127, 127, 127, 127, 127, -27392, 127, 127,
   127, -13312, -5888, -29696, -1280, -28928, 127, -9728,
   -9472, 127, 127, 127, 127, -11008, 127, 127,
   127, -31232, 127, -26624, -32512, -13568, -6144, -28672,
   127, 127, 127, -23808, -1536, -30208, 127, 127,
   -32768, 127, -11776, -30208, -30976, -8960, 127, 127,
   127, 127, 127, -7680, -24576, 127, -5120, 127,
   -32512, 127, 127, 127, -11776, 127, 127, 127,
   127, 127, -32000, -23040, 127, 127, -1280, 127,
   -30464, 127, -16128, 127, -27392, -26368, -22016, -7168,
   127, 127, 127, 127, -12288, -24320, 127, -19712,
   -23296, -11776, -32768, -21504, 127, 127, 127, -18688,
   -31744, 127, 127, 127, -32000, -1024, -9472, -32000,
   -21248, -7424, -12032, 127, 127, -10752, 127, -7936,
   127, 127, 127, 127, -26368, -26112, -21248, -30720,
   127, -3840, -20480, 127, -23552, -8704, -31488, 127,
   127, -18176, 127, -16640, 127, -30464, -27904, 127,
   -6656, -25600, 127, 127, -32512, -20224, -30976, 127,
   127, 127, 127, 127, -8960, -6400, 127, -30208,
   127, 127, 127, -16128, 127, 127, -5632, 127,
   127, -1792, 127, 127, 127, 127, -2048, 127,
   127, -32000, -2048, -30976, 127, -19456, -23552, -4864,
   127, 127, 127, 127, -18432, -27136, 127, 127,
   -18944, -31488, -16896, 127, -6144, -17664, 127, -7168,
   127, -4352, -17664, -9728, -23040, 127, 127, -32512,
   -17152, 127, 127, 127, -28928, 127, 127, -30720,
   127, 127, -10496, 127, -12288, 127, 127, 127,
   -1280, -21504, -26368, 127, -29696, -2304, -31744, 127,
   127, 127, -30976, -3840, 127, -23296, 127, -32512,
   -17920, 127, -32768, 127, 127, 127, 127, -3328,
   -30208, -6912, -20992, -13312, -7936, 127, -26624, -32000,
   127, 127, -30720, -24064, 127, -9984, -14848, 127,
   127, 127, -28416, -26368, 127, 127, -28672, -31744,
   127, -2560, 127, -9984, 127, 127, -29696, 127,
   127, -18432, 127, -15360, 127, -4352, 127, 127,
   127, 127, 127, -13056, 127, -26624, 127, 127,
   127, 127, -17152, -16640, 127, 127, -16896, -5632,
   -22784, -7168, -25344, -29952, -20736, -7936, -13056, 127,
   127, -30976, 127, 127, -1024, -11520, 127, -17408,
   127, -768, -18688, -18176, 127, -10752, 127, -11776,
   127, 127, -3584, -30208, 127, -768, 127, -23296,
   -18944, 127, -1792, -30464, 127, -24320, -7680, -12544,
   127, -4096, 127, 127, 127, 127, 127, 127,
   -30976, -16896, -1024, 127, -30976, 127, 127, 127,
   -30208, -28416, -32512, 127, 127, 127, -768, -11264,
   -1280, -3328, 127, 127, 127, 127, -31744, -15104,
   127, 127, -7680, -25088, -29696, -512, 127, 127,
   -32256, -30976, -31488, 127, 127, 127, -30720, -13056,
   -18176, 127, 127, 127, -28672, 127, 127, -5120,
   -29184, 127, -26880, -20736, -2816, 127, 127, 127,
   -23552, 127, 127, -32000, -15360, -27392, 127, -27136,
   127, 127, -13568, -26880, 127, -17408, -32256, 127,
   127, -32512, 127, -32512, 127, -32512, -31232, 127,
   -22528, 127, 127, -26880, -768, -28928, -32256, -10240,
   127, 127, -2304, 127, 127, -18944, 127, -18944,
   127, 127, 127, 127, 127, -18176, -26880, 127,
   127, -29184, -31488, 127, -32512, -15872, -5120, 127,
   -3072, 127, -11008, -27648, -8448, -32000, 127, -2304,
   -17152, 127, -768, -28928, -32768, 127, 127, 127,
   -32512, -29952, -31232, 127, 127, 127, -13824, 127,
   -6144, -6144, -14848, -6400, 127, 127, -14336, -30464,
   127, -22528, -9216, 127, 127, -29952, 127, -15360,
   -29696, -32512, 127, 127, 127, -32512, -28672, -7936,
   -22784, -14848, 127, 127, -15872, -512, -32512, 127,
   -18944, 127, -21504, -22272, -30464, -26368, 127, -32768,
   -16896, 127, -23808, 127, 127, 127, 127, -24832,
   -5632, -13824, -31744, -19968, 127, 127, 127, -256,
   127, 127, -32512, -32000, -20992, 127, 127, 127,
   -10240, 127, -16896, 127, -3840, 127, 127, 127,
   127, -18688, 127, 127, 127, -8704, -11264, -12032,
   127, -31744, 127, -32256, -17408, -32256, -28416, 127,
   127, 127, 127, 127, 127, -28928, 127, 127,
   127, -32768, 127, -20736, -23040, 127, -29952, 127,
   127, -1792, -512, 127, 127, 127, -17920, 127,
   127, -8960, -32000, -11264, 127, -21248, 127, -6656,
   127, -30976, -18688, -26880, -29696, -1536, 127, 127,
   127, -22016, -256, -5376, 127, -30720, -7936, 127,
   127, 127, -19968, -28928, 127, -12032, 127, 127,
   -20224, -7936, 127, -1024, -29952, 127, 127, 127,
   127, -17664, 127, 127, 127, 127, 127, 127,
   -16640, 127, -17408, 127, -2560, 127, -28160, -27648,
   -28928, 127, 127, 127, -6656, -30208, -22016, -22272,
   -10496, -32256, -3584, -32512, 127, 127, 127, -21760,
   -22272, -15872, -32256, 127, 127, 127, -18432, -31488,
   -11264, -16128, 127, -8704, 127, 127, 127, -26112,
   -12800, 127, -32256, -21760, 127, 127, 127, -32000,
   -31744, 127, -32768, 127, 127, -32768, 127, 127,
   127, 127, 127, -1024, 127, 127, -11264, -1280,
   127, -31232, -6912, -32000, -20736, -17664, -6400, 127,
   127, 127, -16384, -7936, 127, -30720, -31744, -31488,
   -27904, 127, 127, 127, -1536, -13824, -19456, 127,
   -24832, -768, 127, -12032, 127, -5632, -13312, -32000,
   -1536, -19200, -20224, -9728, 127, -12544, 127, -26624,
   -19712, -8960, -26624, -32768, -20736, 127, 127, -15104,
   -9216, 127, -1536, 127, -15360, -7936, 127, 127,
   -21504, -31488, -2560, 127, -17664, -13568, -32000, -32256,
   127, -5120, 127, -17408, 127, 127, -15872, -31232,
   127, -16128, -768, 127, 127, 127, 127, 127,
   127, 127, -7168, -19712, 127, 127, 127, 127,
   -30208, 127, 127, -8960, -28672, -1792, 127, -31232,
   -15616, -17920, 127, -16384, 127, -5632, 127, -14592,
   -6144, 127, -19456, 127, 127, 127, 127, 127,
   -9984, 127, 127, 127, 127, 127, 127, -6400,
   127, 127, -27392, -31232, 127, 127, 127, 127,
   -6912, 127, -15360, -11264, -32512, 127, -22528, -11776,
   127, 127, -24576, -21504, 127, 127, -24064, 127,
   127, -25088, 127, -17664, -8448, -29696, -31232, 127,
   -5632, 127, 127, -15872, 127, -32512, 127, -29952,
   127, 127, 127, -10240, -13312, 127, -30208, -5632,
   -12800, -32000, 127, -13056, 127, -8448, -27136, 127,
   127, -31232, -25088, -4608, 127, 127, 127, 127,
   127, 127, -256, 127, -27648, 127, 127, 127,
   127, 127, 127, -17152, 127, -12032, 127, -17152,
   -7936, 127, 127, -5888, -8192, -3328, 127, -5888,
   -20480, -5376, -3328, -11520, -23296, -512, -6144, -31488,
   127, -23552, 127, 127, -18688, -2560, 127, 127,
   -3072, -31488, -14592, -29696, 127, 127, -32768, -30208,
   127, -8192, 127, -28160, 127, -26112, 127, -31744,
   -15360, -12800, 127, -28160, -14336, 0, 127, -27392,
   -19200, -32256, -11776, 127, -3584, 127, -32000, 127,
   127, 127, 127, -29440, -30720, 127, 127, -21760,
   -4352, 127, 127, -16640, 127, 127, 127, -27648,
   127, -18176, -5120, -22784, -18944, -22528, -8192, -3072,
   127, -11520, 127, 127, -9984, -11008, 127, 127,
   127, -256, 127, 127, 127, 127, 127, 127,
   -2304, -32256, -8448, -26112, -13056, 127, -32768, -3584,
   -25088, 127, 127, -20224, -3840, -14592, 127, -14080,
   -20992, -24320, 127, 127, 127, 127, -256, -10240,
   127, -32512, -6144, -5632, -3840, 127, -6144, 127,
   -29952, -768, -6656, 127, -13824, 127, 127, 127,
   127, -29184, -10240, -31488, -16896, 127, 127, 127,
   127, 127, 127, 127, -512, 127, -2560, -2304,
   -5120, -5632, -17664, 127, -2816, 127, 127, 127,
   127, 127, 127, -30976, 127, -4864, 127, -4352,
   -29952, -32256, -768, -15360, 127, 127, -31488, -32256,
   127, 127, -32768, -30208, -21504, -22016, 127, -21504,
   127, -22272, -14336, -27136, -20224, -32512, -768, -11264,
   127, 127, 127, 127, -256, -7936, 127, -27136,
   -5120, -19968, -11520, -23296, 127, 127, 127, -31232,
   -12288, 127, -26112, 127, 127, 127, 127, 127,
   -26368, -29952, 127, -31744, 127, 127, 127, -3328,
   -20992, -30208, 127, 127, -6144, 127, 127, -25088,
   -11776, -3328, 127, -512, -1536, 127, -6400, 127,
   127, -9728, -19200, -15360, -18688, -13312, 127, -10496,
   -22528, -32512, -31488, -28928, -6400, -30720, -17152, 127,
   -14848, 127, -22272, 127, 127, 127, -12800, -29952,
   127, -24320, -3072, -6400, 127, -7168, 0, 127,
   127, 127, -7680, 127, -18944, 127, 127, 127,
   -26368, -32768, 127, 127, 127, -8960, -8192, 127,
   127, 127, -512, 127, 127, 127, 127, -32512,
   -21248, -2816, -8704, 127, -19200, 127, 127, 127,
   127, 127, -3072, -23808, -27648, 127, -2304, -5376,
   -15872, -25856, -2560, 127, -6144, 127, -25600, -30976,
   -30208, -14848, 0, -14080, 127, 127, 127, 127,
   -5632, -19200, -5632, 127, -22784, 127, 127, -8192,
   127, -25600, 127, 127, -5120, 127, -16384, 127,
   127, 127, 127, -32512, -17664, 127, 127, -25600,
   127, 127, 127, 127, -12800, -256, 127, -22016,
   127, 127, -16384, -31744, -21248, 127, 127, -9984,
   127, -5120, 127, -17920, -4096, -3840, -4352, -15616,
   127, 127, 127, 127, -5376, -7424, 127, 127,
   -5120, 127, -4864, 127, -256, 127, 127, 127,
   127, 127, 127, -21248, 127, -8704, 127, -512,
   -19456, -6912, -13312, -8448, 127, -21248, 127, -512,
   127, -32768, -2304, 127, 127, -10752, -9472, 127,
   127, 127, 127, -8192, 127, 127, 127, 127,
   -32768, 0, 127, -512, 127, -27904, -2048, -9472,
   127, 127, -5376, 127, 127, -12288, -32768, 127,
   -6656, 127, 127, 127, 127, -31232, 127, 127,
   127, -22784, -256, -9472, 127, 127, -32256, 127,
   127, 127, 127, -26624, -32256, -26880, -11776, -32000,
   -512, 127, 127, 127, -30464, 127, 127, -4608,
   127, 127, 127, 127, 127, 127, 127, -8704,
   -18688, 127, 127, 127, -3840, -18944, -1536, -14336,
   127, -24576, 127, -32512, 127, -32256, 127, 127,
   -32512, 127, 127, 127, 127, -1792, 127, 127,
   127, 127, 127, -29440, 127, 127, 127, -22528,
   127, -12800, -12544, 127, 127, 127, -1792, -5120,
   127, -9984, -23552, -12032, -12544, 127, -17152, -8448,
   127, 127, 127, 127, -9472, 127, -32256, -16128,
   127, -1536, 127, -31744, -2304, 127, -30976, -24064,
   127, -25856, -1280, 127, 127, 127, -32256, 127,
   127, -32768, 127, -26880, 127, 127, 127, 127,
   -11008, 127, -27904, -28672, -5632, 127, 127, 127,
   -21504, -32256, -28160, -11008, -13056, 127, 127, -25344,
   -20736, 127, -11008, -32512, 127, 127, 127, -32512,
   -7936, 127, 127, 127, 127, 127, -12288, 127,
   127, -256, -31488, -27648, 127, 127, -32768, -3328,
   -2816, -31488, 127, -29440, 127, 127, 127, -32256,
   127, 127, -5120, 127, -32512, -4864, 127, 127,
   127, 127, -18176, -22272, 127, -768, 127, 127,
   127, -32512, 127, -17664, 127, -30208, -9728, -13568,
   127, 127, 127, -32000, -2304, 127, 127, 127,
   127, 127, -31744, 127, -11008, -2048, 127, 127,
   -2304, -7424, -8192, -28160, 127, -27648, 0, -23552,
   127, -3072, -4864, 127, -4608, 127, 127, -13312,
   127, 127, -20224, -21248, 127, -8960, -22784, -31744,
   -32000, 127, 127, 127, -9472, -32000, 127, -23552,
   -256, 127, 127, -29952, 127, 127, 127, 127,
   -22272, -31488, -15360, -2816, -1792, -12032, -31232, -5120,
   -2048, 127, -30208, -3328, -32768, -24320, -32512, 127,
   -26624, -17664, -32000, 127, -7680, 127, -16384, -2816,
   127, -17664, -23808, 127, -30464, 127, 127, -30976,
   -5632, -17408, 127, 127, -5632, -24576, -32256, 127,
   127, 127, -32000, -21760, 127, -15104, -15360, -15616,
   -30976, 127, 127, -17152, -28672, -16640, 127, 127,
   -12032, -31232, -10752, 127, 127, -30976, 127, 127,
   -3072, 127, 127, 127, -5376, -7680, -2816, -7936,
